{"learner":{"attributes":{"best_iteration":"300","best_score":"0.02713580698210897","scikit_learn":"{\"_estimator_type\": \"classifier\"}"},"feature_names":["System_Load","System_Wind","System_Solar","LZ_W_Wind","LZ_S_H_Wind","LZ_N_Wind","Available_Gen","outage_severity","Ramp","reserve_margin","Scarcity_Proximity","Load_Stress","Renewable_Contribution","West_Wind_Share","Houston_Load_Share","Dynamic_Stress","Hours_to_Scarcity","Exhaustion_Rate","Ramp_3hr","RM_change_1hr","RM_change_3hr","Wind_change_3hr","Price_lag_1","Price_lag_3","Load_lag_1","hour_sin","hour_cos","month_sin","month_cos","is_weekend","day_of_year","is_price_cap","is_uri"],"feature_types":["float","float","float","float","float","float","float","float","float","float","float","float","float","float","float","float","float","float","float","float","float","float","float","float","float","float","float","float","float","int","int","int","int"],"gradient_booster":{"model":{"cats":{"enc":[],"feature_segments":[],"sorted_idx":[]},"gbtree_model_param":{"num_parallel_tree":"1","num_trees":"331"},"iteration_indptr":[0,1,2,3,4,5,6,7,8,9,10,11,12,13,14,15,16,17,18,19,20,21,22,23,24,25,26,27,28,29,30,31,32,33,34,35,36,37,38,39,40,41,42,43,44,45,46,47,48,49,50,51,52,53,54,55,56,57,58,59,60,61,62,63,64,65,66,67,68,69,70,71,72,73,74,75,76,77,78,79,80,81,82,83,84,85,86,87,88,89,90,91,92,93,94,95,96,97,98,99,100,101,102,103,104,105,106,107,108,109,110,111,112,113,114,115,116,117,118,119,120,121,122,123,124,125,126,127,128,129,130,131,132,133,134,135,136,137,138,139,140,141,142,143,144,145,146,147,148,149,150,151,152,153,154,155,156,157,158,159,160,161,162,163,164,165,166,167,168,169,170,171,172,173,174,175,176,177,178,179,180,181,182,183,184,185,186,187,188,189,190,191,192,193,194,195,196,197,198,199,200,201,202,203,204,205,206,207,208,209,210,211,212,213,214,215,216,217,218,219,220,221,222,223,224,225,226,227,228,229,230,231,232,233,234,235,236,237,238,239,240,241,242,243,244,245,246,247,248,249,250,251,252,253,254,255,256,257,258,259,260,261,262,263,264,265,266,267,268,269,270,271,272,273,274,275,276,277,278,279,280,281,282,283,284,285,286,287,288,289,290,291,292,293,294,295,296,297,298,299,300,301,302,303,304,305,306,307,308,309,310,311,312,313,314,315,316,317,318,319,320,321,322,323,324,325,326,327,328,329,330,331],"tree_info":[0,0,0,0,0,0,0,0,0,0,0,0,0,0,0,0,0,0,0,0,0,0,0,0,0,0,0,0,0,0,0,0,0,0,0,0,0,0,0,0,0,0,0,0,0,0,0,0,0,0,0,0,0,0,0,0,0,0,0,0,0,0,0,0,0,0,0,0,0,0,0,0,0,0,0,0,0,0,0,0,0,0,0,0,0,0,0,0,0,0,0,0,0,0,0,0,0,0,0,0,0,0,0,0,0,0,0,0,0,0,0,0,0,0,0,0,0,0,0,0,0,0,0,0,0,0,0,0,0,0,0,0,0,0,0,0,0,0,0,0,0,0,0,0,0,0,0,0,0,0,0,0,0,0,0,0,0,0,0,0,0,0,0,0,0,0,0,0,0,0,0,0,0,0,0,0,0,0,0,0,0,0,0,0,0,0,0,0,0,0,0,0,0,0,0,0,0,0,0,0,0,0,0,0,0,0,0,0,0,0,0,0,0,0,0,0,0,0,0,0,0,0,0,0,0,0,0,0,0,0,0,0,0,0,0,0,0,0,0,0,0,0,0,0,0,0,0,0,0,0,0,0,0,0,0,0,0,0,0,0,0,0,0,0,0,0,0,0,0,0,0,0,0,0,0,0,0,0,0,0,0,0,0,0,0,0,0,0,0,0,0,0,0,0,0,0,0,0,0,0,0,0,0,0,0,0,0,0,0,0,0,0,0,0,0,0,0,0,0,0,0,0,0,0,0,0,0,0,0,0,0],"trees":[{"base_weights":[-3.0836664E-2,-1.6835783E0,1.7093716E0,1.1691465E0,-1.9503051E0,5.9320843E-1,1.9201111E0,1.4487703E0,-9.79798E-2,-1.3315443E0,-9.99831E-2,1.4734128E0,-9.962756E-2,1.4682491E0,1.9541322E0,1.7507566E0,4.5446485E-1,-9.969628E-2,1.6207774E-1,1.5860317E0,-9.6116506E-2,1.6556987E0,-9.529412E-2,1.3265818E0,1.9615682E0,9.106156E-2,4.7660813E-2,-9.731544E-2,7.047932E-2,5.976058E-2,-9.793814E-2,8.9217365E-2,9.941006E-3,8.936712E-2,2.8232535E-2,9.633722E-2,4.2745557E-2,9.8964475E-2,9.2187405E-2],"categories":[],"categories_nodes":[],"categories_segments":[],"categories_sizes":[],"default_left":[0,0,0,0,0,0,0,0,0,0,0,0,0,0,0,0,0,0,0,0,0,0,0,0,0,0,0,0,0,0,0,0,0,0,0,0,0,0,0],"id":0,"left_children":[1,3,5,7,9,11,13,15,-1,17,-1,19,-1,21,23,25,27,-1,29,31,-1,33,-1,35,37,-1,-1,-1,-1,-1,-1,-1,-1,-1,-1,-1,-1,-1,-1],"loss_changes":[3.9189723E4,5.319883E3,1.5600957E3,5.261692E2,1.925332E2,2.4054634E3,8.2953125E1,1.64255E2,0E0,4.7041663E2,0E0,3.0443567E2,0E0,2.5293555E2,2.1613281E1,2.194226E1,2.994731E2,0E0,3.2422653E2,2.0964526E2,0E0,5.2804688E1,0E0,1.6428345E1,7.0527344E0,0E0,0E0,0E0,0E0,0E0,0E0,0E0,0E0,0E0,0E0,0E0,0E0,0E0,0E0],"parents":[2147483647,0,0,1,1,2,2,3,3,4,4,5,5,6,6,7,7,9,9,11,11,13,13,14,14,15,15,16,16,18,18,19,19,21,21,23,23,24,24],"right_children":[2,4,6,8,10,12,14,16,-1,18,-1,20,-1,22,24,26,28,-1,30,32,-1,34,-1,36,38,-1,-1,-1,-1,-1,-1,-1,-1,-1,-1,-1,-1,-1,-1],"split_conditions":[7.13225E1,1.4968147E0,1.23415E2,5.3027E3,5.09E1,4.7303433E0,1.817825E2,9.7044873E-1,-9.79798E-2,3.82175E1,-9.99831E-2,-5.548E2,-9.962756E-2,5.8756185E-1,4.34214E4,3.8393E2,6.11593E3,-9.969628E-2,1.9E2,4.8709E3,-9.6116506E-2,3.5462E3,-9.529412E-2,9.026E2,2.3560598E1,9.106156E-2,4.7660813E-2,-9.731544E-2,7.047932E-2,5.976058E-2,-9.793814E-2,8.9217365E-2,9.941006E-3,8.936712E-2,2.8232535E-2,9.633722E-2,4.2745557E-2,9.8964475E-2,9.2187405E-2],"split_indices":[22,16,22,9,5,16,22,16,0,22,0,19,0,13,0,5,1,0,30,9,0,9,0,9,16,0,0,0,0,0,0,0,0,0,0,0,0,0,0],"split_type":[0,0,0,0,0,0,0,0,0,0,0,0,0,0,0,0,0,0,0,0,0,0,0,0,0,0,0,0,0,0,0,0,0,0,0,0,0,0,0],"sum_hessian":[1.3623927E4,6.987585E3,6.6363413E3,5.971801E2,6.390405E3,1.0545935E3,5.5817476E3,5.486801E2,4.85E1,4.7415503E2,5.91625E3,7.8709344E2,2.675E2,3.9392172E2,5.187826E3,4.202751E2,1.2840501E2,3.2825E2,1.4590501E2,7.6234344E2,2.475E1,3.7367172E2,2.025E1,6.2853344E1,5.1249727E3,3.8497342E2,3.5301674E1,3.625E1,9.2155014E1,9.8405014E1,4.75E1,6.667401E2,9.560335E1,3.3287006E2,4.0801674E1,2.6301672E1,3.6551674E1,4.4411807E3,6.837918E2],"tree_param":{"num_deleted":"0","num_feature":"33","num_nodes":"39","size_leaf_vector":"1"}},{"base_weights":[-2.3601273E-2,-1.4866186E0,1.7091686E0,1.2687163E0,-1.8133891E0,9.4859105E-1,1.8619621E0,1.4867973E0,-9.373757E-2,-1.8284738E0,8.437487E-2,1.424673E0,-1.3373128E0,3.884077E-2,1.8694389E0,1.7180352E0,6.313392E-1,-1.439505E0,-9.526444E-2,1.6055819E0,-5.496955E-1,9.593517E-2,-9.584291E-2,9.428131E-2,1.7597542E0,8.85343E-2,4.4258524E-2,-9.337297E-2,7.4317835E-2,-1.5462043E-2,-8.9200124E-2,8.726643E-2,4.6976894E-2,8.875732E-2,-9.5307246E-2,5.100599E-2,9.4317846E-2],"categories":[],"categories_nodes":[],"categories_segments":[],"categories_sizes":[],"default_left":[0,0,0,0,0,0,0,0,0,0,0,0,0,0,0,0,0,0,0,0,0,0,0,0,0,0,0,0,0,0,0,0,0,0,0,0,0],"id":1,"left_children":[1,3,5,7,9,11,13,15,-1,17,-1,19,21,-1,23,25,27,29,-1,31,33,-1,-1,-1,35,-1,-1,-1,-1,-1,-1,-1,-1,-1,-1,-1,-1],"loss_changes":[3.4772258E4,6.6984062E3,7.279668E2,5.437296E2,3.5421875E2,1.147297E3,4.0964844E1,1.4499182E2,0E0,1.9508398E2,0E0,3.121836E2,3.469841E2,0E0,5.8984375E0,2.3898315E1,3.4187497E2,4.261997E2,0E0,7.269653E1,2.3643219E2,0E0,0E0,0E0,6.1993652E1,0E0,0E0,0E0,0E0,0E0,0E0,0E0,0E0,0E0,0E0,0E0,0E0],"parents":[2147483647,0,0,1,1,2,2,3,3,4,4,5,5,6,6,7,7,9,9,11,11,12,12,14,14,15,15,16,16,17,17,19,19,20,20,24,24],"right_children":[2,4,6,8,10,12,14,16,-1,18,-1,20,22,-1,24,26,28,30,-1,32,34,-1,-1,-1,36,-1,-1,-1,-1,-1,-1,-1,-1,-1,-1,-1,-1],"split_conditions":[8.0015E1,1.4968147E0,1.817825E2,5.3027E3,1.0687922E0,4.5179E3,4.29782E4,9.7044873E-1,-9.373757E-2,5.388957E-1,8.437487E-2,1.6717392E1,3.4178E4,3.884077E-2,2.3560598E1,3.13443E3,6.11593E3,3.502347E0,-9.526444E-2,2.1678197E0,2.1211319E-1,9.593517E-2,-9.584291E-2,9.428131E-2,8.660254E-1,8.85343E-2,4.4258524E-2,-9.337297E-2,7.4317835E-2,-1.5462043E-2,-8.9200124E-2,8.726643E-2,4.6976894E-2,8.875732E-2,-9.5307246E-2,5.100599E-2,9.4317846E-2],"split_indices":[22,16,22,9,15,9,24,16,0,13,0,16,24,0,16,4,1,16,0,16,13,0,0,0,27,0,0,0,0,0,0,0,0,0,0,0,0],"split_type":[0,0,0,0,0,0,0,0,0,0,0,0,0,0,0,0,0,0,0,0,0,0,0,0,0,0,0,0,0,0,0,0,0,0,0,0,0],"sum_hessian":[1.3714475E4,7.436125E3,6.2783496E3,7.880859E2,6.648039E3,1.0514814E3,5.226868E3,7.3745154E2,5.0634346E1,6.6199927E3,2.8046682E1,8.7055E2,1.8093143E2,3.648556E1,5.1903823E3,5.7973553E2,1.5771599E2,1.0949954E3,5.524997E3,7.976492E2,7.2900826E1,2.6989214E1,1.5394221E2,4.5087886E3,6.815939E2,5.4420667E2,3.5528904E1,3.9906025E1,1.1780996E2,2.5622906E2,8.387663E2,6.579751E2,1.396741E2,2.674811E1,4.6152718E1,1.009404E2,5.8065344E2],"tree_param":{"num_deleted":"0","num_feature":"33","num_nodes":"37","size_leaf_vector":"1"}},{"base_weights":[1.8825263E-2,-1.471586E0,1.5664093E0,-1.7182937E0,1.0786028E0,4.8489055E-1,1.7260754E0,-9.7240937E-1,-1.7899425E0,-9.30768E-2,1.2858193E0,-1.436538E0,1.2922314E0,-2.8793804E-2,1.7412877E0,-1.6019237E0,1.3598764E0,-1.1494645E0,-1.8062898E0,1.475517E0,-8.888326E-2,8.959507E-2,-9.1168426E-2,1.4588919E0,-9.249916E-2,-9.521767E-2,8.811339E-2,1.3766284E0,1.7873532E0,1.6570065E-2,-9.140821E-2,2.9892731E-2,8.5801266E-2,-9.067607E-2,4.7453213E-2,-5.9206136E-2,-9.121368E-2,7.953791E-2,3.5968658E-2,8.191603E-2,-1.0683705E-2,-9.061222E-2,7.621353E-2,6.1348528E-2,8.96967E-2],"categories":[],"categories_nodes":[],"categories_segments":[],"categories_sizes":[],"default_left":[0,0,0,0,0,0,0,0,0,0,0,0,0,0,0,0,0,0,0,0,0,0,0,0,0,0,0,0,0,0,0,0,0,0,0,0,0,0,0,0,0,0,0,0,0],"id":2,"left_children":[1,3,5,7,9,11,13,15,17,-1,19,21,23,25,27,29,31,33,35,37,-1,-1,-1,39,-1,-1,-1,41,43,-1,-1,-1,-1,-1,-1,-1,-1,-1,-1,-1,-1,-1,-1,-1,-1],"loss_changes":[3.1977502E4,4.445165E3,1.1736543E3,3.4241602E2,3.823014E2,1.3612651E3,1.5825E2,8.340303E2,5.942578E1,0E0,3.4148785E2,3.2765527E2,3.2611743E2,1.777458E2,9.623242E1,1.9595276E2,3.1802765E1,2.0928952E2,6.191211E1,4.675183E1,0E0,0E0,0E0,1.765238E2,0E0,0E0,0E0,3.1505066E2,1.7023438E1,0E0,0E0,0E0,0E0,0E0,0E0,0E0,0E0,0E0,0E0,0E0,0E0,0E0,0E0,0E0,0E0],"parents":[2147483647,0,0,1,1,2,2,3,3,4,4,5,5,6,6,7,7,8,8,10,10,11,11,12,12,13,13,14,14,15,15,16,16,17,17,18,18,19,19,23,23,27,27,28,28],"right_children":[2,4,6,8,10,12,14,16,18,-1,20,22,24,26,28,30,32,34,36,38,-1,-1,-1,40,-1,-1,-1,42,44,-1,-1,-1,-1,-1,-1,-1,-1,-1,-1,-1,-1,-1,-1,-1,-1],"split_conditions":[7.13225E1,9.9929273E-1,1.012775E2,4.8709E3,6.19176E3,9.3138623E-1,-2.01401E3,2.7465E3,1.45E1,-9.30768E-2,5.3027E3,3.31125E4,1.17099E3,4.8633E3,1.817825E2,-2.39515E3,4.88525E1,5.94661E4,-4.89181E3,2.29E2,-8.888326E-2,8.959507E-2,-9.1168426E-2,6.26799E3,-9.249916E-2,-9.521767E-2,8.811339E-2,-3.3237E2,4.33322E4,1.6570065E-2,-9.140821E-2,2.9892731E-2,8.5801266E-2,-9.067607E-2,4.7453213E-2,-5.9206136E-2,-9.121368E-2,7.953791E-2,3.5968658E-2,8.191603E-2,-1.0683705E-2,-9.061222E-2,7.621353E-2,6.1348528E-2,8.96967E-2],"split_indices":[22,15,22,9,18,15,8,8,5,0,9,0,21,20,22,21,22,0,21,30,0,0,0,2,0,0,0,8,0,0,0,0,0,0,0,0,0,0,0,0,0,0,0,0,0],"split_type":[0,0,0,0,0,0,0,0,0,0,0,0,0,0,0,0,0,0,0,0,0,0,0,0,0,0,0,0,0,0,0,0,0,0,0,0,0,0,0,0,0,0,0,0,0],"sum_hessian":[1.386186E4,7.06139E3,6.80047E3,6.438819E3,6.225712E2,8.7533234E2,5.925138E3,5.655766E2,5.873242E3,4.0463398E1,5.8210785E2,2.5874756E2,6.165848E2,5.0913433E1,5.8742246E3,4.4561298E2,1.1996361E2,1.4795015E2,5.7252925E3,5.486524E2,3.3455414E1,2.7297094E1,2.3145045E2,5.860376E2,3.0547228E1,2.4839163E1,2.607427E1,6.6229694E2,5.2119277E3,4.6634617E1,3.9897836E2,3.9062828E1,8.090078E1,1.1248978E2,3.546037E1,1.6271901E2,5.562573E3,4.7513504E2,7.35174E1,5.292784E2,5.6759193E1,2.8808025E1,6.3348895E2,6.266978E1,5.149258E3],"tree_param":{"num_deleted":"0","num_feature":"33","num_nodes":"45","size_leaf_vector":"1"}},{"base_weights":[-2.2399267E-2,-1.4452614E0,1.5800526E0,1.5678788E0,-1.6834685E0,-6.974948E-1,1.6103461E0,1.6204793E0,4.079771E-2,-5.9467775E-1,-1.7089645E0,7.4115664E-2,-8.985423E-2,1.1476738E0,1.7174518E0,1.4698781E0,8.589709E-2,-9.116234E-2,1.1574279E0,-1.370629E0,-1.7371527E0,-8.764458E-2,1.305563E0,4.111926E-2,1.7234436E0,3.0116564E-2,8.324329E-2,3.5757136E-2,8.637506E-2,-8.8010095E-2,2.0156434E-2,-5.754711E-2,-8.769002E-2,6.844219E-2,-8.518448E-2,6.0634702E-2,8.6311094E-2],"categories":[],"categories_nodes":[],"categories_segments":[],"categories_sizes":[],"default_left":[0,0,0,0,0,0,0,0,0,0,0,0,0,0,0,0,0,0,0,0,0,0,0,0,0,0,0,0,0,0,0,0,0,0,0,0,0],"id":3,"left_children":[1,3,5,7,9,11,13,15,-1,17,19,-1,-1,21,23,25,-1,-1,27,29,31,-1,33,-1,35,-1,-1,-1,-1,-1,-1,-1,-1,-1,-1,-1,-1],"loss_changes":[3.0568762E4,5.0996797E3,4.3617285E2,1.9276001E1,1.8168945E2,2.0272426E2,3.064131E2,4.60437E0,0E0,3.2957648E2,5.8947266E1,0E0,0E0,5.394005E2,2.5672852E1,3.2451385E1,0E0,0E0,1.4728546E1,3.4572266E2,5.5873047E1,0E0,2.1424854E2,0E0,5.026367E0,0E0,0E0,0E0,0E0,0E0,0E0,0E0,0E0,0E0,0E0,0E0,0E0],"parents":[2147483647,0,0,1,1,2,2,3,3,4,4,5,5,6,6,7,7,9,9,10,10,13,13,14,14,15,15,18,18,19,19,20,20,22,22,24,24],"right_children":[2,4,6,8,10,12,14,16,-1,18,20,-1,-1,22,24,26,-1,-1,28,30,32,-1,34,-1,36,-1,-1,-1,-1,-1,-1,-1,-1,-1,-1,-1,-1],"split_conditions":[8.0015E1,9.7044873E-1,-2.01401E3,3.13443E3,1.4968147E0,4.5E1,1.817825E2,5.0115E1,4.079771E-2,6.334799E-1,5.768E1,7.4115664E-2,-8.985423E-2,-3.1522E2,4.33322E4,2.6550946E-1,8.589709E-2,-9.116234E-2,4.65523E4,5.2835E1,-4.89181E3,-8.764458E-2,7.3473E3,4.111926E-2,-1.7073E3,3.0116564E-2,8.324329E-2,3.5757136E-2,8.637506E-2,-8.8010095E-2,2.0156434E-2,-5.754711E-2,-8.769002E-2,6.844219E-2,-8.518448E-2,6.0634702E-2,8.6311094E-2],"split_indices":[22,16,8,4,16,30,22,22,0,7,5,0,0,8,0,7,0,0,24,22,21,0,9,0,8,0,0,0,0,0,0,0,0,0,0,0,0],"split_type":[0,0,0,0,0,0,0,0,0,0,0,0,0,0,0,0,0,0,0,0,0,0,0,0,0,0,0,0,0,0,0,0,0,0,0,0,0],"sum_hessian":[1.340495E4,7.100402E3,6.3045483E3,5.197958E2,6.5806064E3,8.24665E1,6.222082E3,4.8473157E2,3.506424E1,1.5112712E2,6.429479E3,2.7534504E1,5.493199E1,1.1718165E3,5.050265E3,1.9676578E2,2.8796576E2,8.881196E1,6.2315166E1,4.9828952E2,5.9311895E3,5.997214E1,1.1118444E3,3.4502556E1,5.0157627E3,3.685925E1,1.5990654E2,3.6360073E1,2.5955095E1,4.0856372E2,8.97258E1,1.6572379E2,5.765466E3,1.0894791E3,2.236523E1,2.9502811E1,4.98626E3],"tree_param":{"num_deleted":"0","num_feature":"33","num_nodes":"37","size_leaf_vector":"1"}},{"base_weights":[2.7468093E-2,1.3813473E0,-1.2307111E0,-8.515896E-2,1.4252977E0,1.3275971E0,-1.5075266E0,9.4057125E-1,1.6091E0,-8.389528E-2,1.6586657E0,-9.014089E-1,-1.641628E0,3.8840836E-1,1.3417636E0,1.3798696E0,1.6531647E0,8.426895E-2,5.5096168E-2,1.3877136E-1,-1.4697499E0,7.739239E-2,-1.658392E0,5.943678E-2,-6.780743E-2,1.4688303E-2,7.183295E-2,7.531866E-2,-1.1577728E-2,5.8027573E-2,8.283073E-2,-3.1738516E-2,7.045303E-2,-8.496075E-2,3.1042296E-2,-8.458427E-2,-1.4357639E-2],"categories":[],"categories_nodes":[],"categories_segments":[],"categories_sizes":[],"default_left":[0,0,0,0,0,0,0,0,0,0,0,0,0,0,0,0,0,0,0,0,0,0,0,0,0,0,0,0,0,0,0,0,0,0,0,0,0],"id":4,"left_children":[1,3,5,-1,7,9,11,13,15,-1,17,19,21,23,25,27,29,-1,-1,31,33,-1,35,-1,-1,-1,-1,-1,-1,-1,-1,-1,-1,-1,-1,-1,-1],"loss_changes":[2.31353E4,8.893037E2,4.98733E3,0E0,5.732002E2,6.8722986E2,5.1488184E2,3.928871E2,4.4948242E1,0E0,7.3657227E0,6.8189856E2,2.8063477E2,1.0470334E3,1.01829346E2,1.5526318E2,4.734375E0,0E0,0E0,4.0214313E2,3.5881445E2,0E0,2.3572266E2,0E0,0E0,0E0,0E0,0E0,0E0,0E0,0E0,0E0,0E0,0E0,0E0,0E0,0E0],"parents":[2147483647,0,0,1,1,2,2,4,4,5,5,6,6,7,7,8,8,10,10,11,11,12,12,13,13,14,14,15,15,16,16,19,19,20,20,22,22],"right_children":[2,4,6,-1,8,10,12,14,16,-1,18,20,22,24,26,28,30,-1,-1,32,34,-1,36,-1,-1,-1,-1,-1,-1,-1,-1,-1,-1,-1,-1,-1,-1],"split_conditions":[4.5985E3,-2.968961E3,2.1832356E-1,-8.515896E-2,2.0432656E4,8.622E1,5.4547787E-1,5.0895E1,5.413915E-1,-8.389528E-2,1.5149356E-1,4.292348E0,8.692833E-1,2.1112695E0,9.079499E-1,1.32128E3,3.670867E4,8.426895E-2,5.5096168E-2,6.95959E-1,9.2381024E-1,7.739239E-2,6.03528E3,5.943678E-2,-6.780743E-2,1.4688303E-2,7.183295E-2,7.531866E-2,-1.1577728E-2,5.8027573E-2,8.283073E-2,-3.1738516E-2,7.045303E-2,-8.496075E-2,3.1042296E-2,-8.458427E-2,-1.4357639E-2],"split_indices":[9,18,14,0,11,23,13,23,10,0,12,16,16,16,15,21,6,0,0,7,15,0,4,0,0,0,0,0,0,0,0,0,0,0,0,0,0],"split_type":[0,0,0,0,0,0,0,0,0,0,0,0,0,0,0,0,0,0,0,0,0,0,0,0,0,0,0,0,0,0,0,0,0,0,0,0,0],"sum_hessian":[1.3579656E4,6.541017E3,7.0386396E3,9.136111E1,6.449656E3,6.868675E2,6.3517725E3,1.7749211E3,4.674735E3,6.7750206E1,6.191173E2,1.1521141E3,5.199658E3,7.477531E2,1.0271681E3,7.5894086E2,3.915794E3,5.8883673E2,3.0280546E1,4.073451E2,7.4476904E2,2.6708925E1,5.172949E3,5.128146E2,2.349385E2,8.562678E1,9.4154126E2,7.037581E2,5.518271E1,2.9578382E1,3.8862153E3,2.5348557E2,1.5385954E2,6.712765E2,7.349252E1,5.0500996E3,1.2284968E2],"tree_param":{"num_deleted":"0","num_feature":"33","num_nodes":"37","size_leaf_vector":"1"}},{"base_weights":[2.127399E-3,-1.3268833E0,1.4032391E0,1.0618961E0,-1.5917801E0,4.0523577E-1,1.5426531E0,1.4610943E0,8.23229E-2,-1.0604403E0,-1.6216853E0,1.1751368E0,-1.2877954E0,-1.3739675E-1,1.5592024E0,1.5181999E0,3.541275E-2,-8.562129E-2,9.0541446E-1,-8.217168E-2,7.940798E-1,-1.4146724E0,-8.182893E-2,1.455547E0,-9.284581E-2,6.655527E-2,-8.367184E-2,-9.540302E-2,7.9793625E-2,8.053977E-2,1.5722982E0,7.800576E-2,4.573323E-2,7.1193144E-2,-8.2810186E-2,9.606392E-2,9.566939E-3,-8.339035E-2,7.370325E-2,8.125456E-2,4.713906E-2,-8.540203E-2,8.511467E-2,6.423956E-2,8.043434E-2],"categories":[],"categories_nodes":[],"categories_segments":[],"categories_sizes":[],"default_left":[0,0,0,0,0,0,0,0,0,0,0,0,0,0,0,0,0,0,0,0,0,0,0,0,0,0,0,0,0,0,0,0,0,0,0,0,0,0,0,0,0,0,0,0,0],"id":5,"left_children":[1,3,5,7,9,11,13,15,17,19,21,23,25,27,29,31,-1,-1,33,-1,35,37,-1,39,-1,-1,-1,-1,-1,41,43,-1,-1,-1,-1,-1,-1,-1,-1,-1,-1,-1,-1,-1,-1],"loss_changes":[2.4667596E4,4.303675E3,8.966172E2,2.6549554E2,9.553027E1,1.0335676E3,1.5752637E2,1.9669067E1,2.936363E2,3.570132E2,1.5542969E1,4.6589685E2,2.5267926E2,1.7524515E2,1.0836719E2,9.896851E0,0E0,0E0,1.8325461E2,0E0,5.3552612E1,2.921214E2,0E0,4.186975E1,0E0,0E0,0E0,0E0,0E0,1.486343E2,5.603418E1,0E0,0E0,0E0,0E0,0E0,0E0,0E0,0E0,0E0,0E0,0E0,0E0,0E0,0E0],"parents":[2147483647,0,0,1,1,2,2,3,3,4,4,5,5,6,6,7,7,8,8,9,9,10,10,11,11,12,12,13,13,14,14,15,15,18,18,20,20,21,21,23,23,29,29,30,30],"right_children":[2,4,6,8,10,12,14,16,18,20,22,24,26,28,30,32,-1,-1,34,-1,36,38,-1,40,-1,-1,-1,-1,-1,42,44,-1,-1,-1,-1,-1,-1,-1,-1,-1,-1,-1,-1,-1,-1],"split_conditions":[7.13225E1,1.4968147E0,1.012775E2,9.7044873E-1,3.414E1,4.7303433E0,4.30782E4,6.0914E2,6.11593E3,4.56125E1,2.7799919E0,6.26799E3,2.1280043E-1,2.79821E3,-2.01401E3,1.233343E4,3.541275E-2,-8.562129E-2,3.60915E3,-8.217168E-2,4.63175E1,1.2818E3,-8.182893E-2,2.2E2,-9.284581E-2,6.655527E-2,-8.367184E-2,-9.540302E-2,7.9793625E-2,4.8633E3,1.817825E2,7.800576E-2,4.573323E-2,7.1193144E-2,-8.2810186E-2,9.606392E-2,9.566939E-3,-8.339035E-2,7.370325E-2,8.125456E-2,4.713906E-2,-8.540203E-2,8.511467E-2,6.423956E-2,8.043434E-2],"split_indices":[22,16,22,16,5,16,0,5,1,22,16,2,14,2,8,18,0,0,8,0,22,20,0,30,0,0,0,0,0,20,22,0,0,0,0,0,0,0,0,0,0,0,0,0,0],"split_type":[0,0,0,0,0,0,0,0,0,0,0,0,0,0,0,0,0,0,0,0,0,0,0,0,0,0,0,0,0,0,0,0,0,0,0,0,0,0,0,0,0,0,0,0,0],"sum_hessian":[1.3245245E4,6.7975493E3,6.4476953E3,6.782483E2,6.1193013E3,7.907767E2,5.656919E3,4.815246E2,1.9672371E2,3.2800214E2,5.791299E3,5.437939E2,2.4698279E2,5.5108845E1,5.60181E3,4.4662946E2,3.4895138E1,6.1513416E1,1.352103E2,2.4963869E2,7.836346E1,3.9512616E2,5.396173E3,4.98236E2,4.55579E1,3.138624E1,2.1559654E2,2.7210474E1,2.789837E1,4.923956E1,5.5525703E3,4.1614346E2,3.0486E1,1.1282058E2,2.2389711E1,2.6541002E1,5.1822453E1,3.636802E2,3.1445951E1,3.728014E2,1.2543459E2,2.3390127E1,2.584943E1,6.2789087E2,4.9246797E3],"tree_param":{"num_deleted":"0","num_feature":"33","num_nodes":"45","size_leaf_vector":"1"}},{"base_weights":[4.866873E-2,-1.2913619E0,1.3692691E0,9.692836E-1,-1.5253992E0,3.1783825E-1,1.4808022E0,1.1598449E0,-7.867693E-2,-9.775188E-1,-1.5707636E0,1.2048444E0,-1.2342951E0,-3.1008008E-1,1.4997561E0,1.3939686E0,3.107095E-1,-7.935692E-2,3.3663994E-1,-9.874538E-1,-7.9364635E-2,1.4533292E0,-3.3948177E-1,6.939083E-2,-8.148017E-2,7.564108E-2,-8.194991E-2,1.1954391E0,1.5575752E0,3.547717E-2,7.2284676E-2,6.767356E-2,-8.944337E-2,5.6784954E-2,-8.252292E-2,4.511339E-2,-8.0800556E-2,7.822283E-2,2.8980607E-2,-9.158626E-2,7.618969E-2,-8.33036E-2,6.612683E-2,5.1267475E-2,7.8021094E-2],"categories":[],"categories_nodes":[],"categories_segments":[],"categories_sizes":[],"default_left":[0,0,0,0,0,0,0,0,0,0,0,0,0,0,0,0,0,0,0,0,0,0,0,0,0,0,0,0,0,0,0,0,0,0,0,0,0,0,0,0,0,0,0,0,0],"id":6,"left_children":[1,3,5,7,9,11,13,15,-1,17,19,21,23,25,27,29,31,-1,33,35,-1,37,39,-1,-1,-1,-1,41,43,-1,-1,-1,-1,-1,-1,-1,-1,-1,-1,-1,-1,-1,-1,-1,-1],"loss_changes":[2.3449244E4,3.4812305E3,7.821572E2,3.0110767E2,1.4660547E2,8.8441986E2,2.0526758E2,1.1390814E2,0E0,3.6779886E2,5.149121E1,1.5729175E2,2.4451389E2,1.57556E2,1.0318945E2,1.4924805E1,2.7739005E2,0E0,2.338455E2,1.8471896E2,0E0,3.328589E1,1.625104E2,0E0,0E0,0E0,0E0,3.504558E2,5.9970703E0,0E0,0E0,0E0,0E0,0E0,0E0,0E0,0E0,0E0,0E0,0E0,0E0,0E0,0E0,0E0,0E0],"parents":[2147483647,0,0,1,1,2,2,3,3,4,4,5,5,6,6,7,7,9,9,10,10,11,11,12,12,13,13,14,14,15,15,16,16,18,18,19,19,21,21,22,22,27,27,28,28],"right_children":[2,4,6,8,10,12,14,16,-1,18,20,22,24,26,28,30,32,-1,34,36,-1,38,40,-1,-1,-1,-1,42,44,-1,-1,-1,-1,-1,-1,-1,-1,-1,-1,-1,-1,-1,-1,-1,-1],"split_conditions":[7.13225E1,1.4968147E0,8.944E1,5.3027E3,5.09E1,3.502347E0,-2.01401E3,9.7044873E-1,-7.867693E-2,3.82175E1,-4.89181E3,5.691E1,2.1280043E-1,2.548853E-1,1.817825E2,-5E-1,1.3333445E0,-7.935692E-2,5.231466E-1,-7.0710677E-1,-7.9364635E-2,1.7591901E-1,6.66213E4,6.939083E-2,-8.148017E-2,7.564108E-2,-8.194991E-2,-3.1522E2,-1.7073E3,3.547717E-2,7.2284676E-2,6.767356E-2,-8.944337E-2,5.6784954E-2,-8.252292E-2,4.511339E-2,-8.0800556E-2,7.822283E-2,2.8980607E-2,-9.158626E-2,7.618969E-2,-8.33036E-2,6.612683E-2,5.1267475E-2,7.8021094E-2],"split_indices":[22,16,22,9,5,16,8,16,0,22,21,23,14,13,22,28,17,0,13,25,0,12,6,0,0,0,0,8,8,0,0,0,0,0,0,0,0,0,0,0,0,0,0,0,0],"split_type":[0,0,0,0,0,0,0,0,0,0,0,0,0,0,0,0,0,0,0,0,0,0,0,0,0,0,0,0,0,0,0,0,0,0,0,0,0,0,0,0,0,0,0,0,0],"sum_hessian":[1.324882E4,6.576044E3,6.6727764E3,6.1663324E2,5.9594106E3,6.403158E2,6.0324604E3,5.741498E2,4.2483414E1,4.574292E2,5.5019814E3,4.0760394E2,2.3271188E2,6.3015404E1,5.969445E3,4.4955643E2,1.2459339E2,3.123341E2,1.450951E2,1.5328621E2,5.3486953E3,3.511605E2,5.6443447E1,3.0158356E1,2.0255353E2,2.6511164E1,3.6504242E1,9.565502E2,5.012895E3,3.2621735E1,4.169347E2,8.348544E1,4.110795E1,1.03787964E2,4.1307125E1,3.8151237E1,1.15134964E2,3.1083505E2,4.032545E1,3.1351704E1,2.5091742E1,4.0164566E1,9.163856E2,2.8590767E1,4.984304E3],"tree_param":{"num_deleted":"0","num_feature":"33","num_nodes":"45","size_leaf_vector":"1"}},{"base_weights":[-3.0151654E-2,-1.216461E0,1.4284716E0,-1.4372422E0,8.769767E-1,1.0710996E0,1.5002564E0,-1.4882684E0,-4.791955E-1,1.1215404E0,-7.3421496E-1,-7.90902E-2,1.1643074E0,1.8119127E-2,1.5088983E0,-1.1966406E0,-7.711982E-2,1.377871E0,-8.043147E-2,-1.3269047E-1,1.2403039E0,-8.237066E-2,7.642207E-2,1.2642457E0,-3.7593225E-1,1.3850952E0,7.601826E-2,-7.8355975E-2,-2.0450782E-2,2.37108E-2,9.0260044E-2,7.568439E-2,-8.7323666E-2,9.517918E-3,6.6365056E-2,6.9241896E-2,2.1407375E-2,-9.484898E-2,7.433786E-2,2.4388954E-2,7.331727E-2],"categories":[],"categories_nodes":[],"categories_segments":[],"categories_sizes":[],"default_left":[0,0,0,0,0,0,0,0,0,0,0,0,0,0,0,0,0,0,0,0,0,0,0,0,0,0,0,0,0,0,0,0,0,0,0,0,0,0,0,0,0],"id":7,"left_children":[1,3,5,7,9,11,13,15,17,19,21,-1,23,-1,25,27,-1,29,-1,31,33,-1,-1,35,37,39,-1,-1,-1,-1,-1,-1,-1,-1,-1,-1,-1,-1,-1,-1,-1],"loss_changes":[2.156261E4,3.1774756E3,1.4177734E2,3.032002E2,2.5940405E2,2.3387756E2,4.5195312E1,9.131836E1,6.6467914E2,8.509149E1,1.824614E2,0E0,1.401062E2,0E0,4.446289E0,2.702699E2,0E0,4.547702E1,0E0,1.3607465E2,4.732965E1,0E0,0E0,8.531848E1,1.6160194E2,2.8634949E1,0E0,0E0,0E0,0E0,0E0,0E0,0E0,0E0,0E0,0E0,0E0,0E0,0E0,0E0,0E0],"parents":[2147483647,0,0,1,1,2,2,3,3,4,4,5,5,6,6,7,7,8,8,9,9,10,10,12,12,14,14,15,15,17,17,19,19,20,20,23,23,24,24,25,25],"right_children":[2,4,6,8,10,12,14,16,18,20,22,-1,24,-1,26,28,-1,30,-1,32,34,-1,-1,36,38,40,-1,-1,-1,-1,-1,-1,-1,-1,-1,-1,-1,-1,-1,-1,-1],"split_conditions":[8.944E1,1.9511589E0,1.817825E2,7.27675E1,4.21E3,-1.20421E3,4.45646E4,5.388957E-1,4.562E1,7.37333E3,3.53E2,-7.90902E-2,6.2873E-1,1.8119127E-2,2.398475E2,8.660254E-1,-7.711982E-2,4.9213E3,-8.043147E-2,-4.55972E3,3.21E1,-8.237066E-2,7.642207E-2,5.1977E3,5.5769E4,4.833002E-1,7.601826E-2,-7.8355975E-2,-2.0450782E-2,2.37108E-2,9.0260044E-2,7.568439E-2,-8.7323666E-2,9.517918E-3,6.6365056E-2,6.9241896E-2,2.1407375E-2,-9.484898E-2,7.433786E-2,2.4388954E-2,7.331727E-2],"split_indices":[22,17,22,22,9,18,0,13,23,18,30,0,13,0,22,27,0,2,0,21,22,0,0,2,11,17,0,0,0,0,0,0,0,0,0,0,0,0,0,0,0],"split_type":[0,0,0,0,0,0,0,0,0,0,0,0,0,0,0,0,0,0,0,0,0,0,0,0,0,0,0,0,0,0,0,0,0,0,0,0,0,0,0,0,0],"sum_hessian":[1.2459206E4,6.871075E3,5.5881313E3,6.215844E3,6.552311E2,9.3738654E2,4.6507446E3,5.901E3,3.1484436E2,5.691443E2,8.608681E1,3.127443E1,9.0611206E2,3.537834E1,4.615366E3,9.2741797E2,4.973582E3,1.1898456E2,1.958598E2,4.9220623E1,5.1992365E2,6.152678E1,2.4560028E1,8.5106964E2,5.504243E1,4.015705E2,4.213796E3,6.300627E2,2.973553E2,3.887887E1,8.010569E1,2.4394957E1,2.4825665E1,4.0027737E1,4.7989594E2,7.432175E2,1.0785211E2,3.0289785E1,2.4752644E1,3.392377E1,3.6764673E2],"tree_param":{"num_deleted":"0","num_feature":"33","num_nodes":"41","size_leaf_vector":"1"}},{"base_weights":[-7.7258526E-5,-1.2174942E0,1.279731E0,9.6102977E-1,-1.457011E0,2.4630953E-1,1.3877561E0,1.1354781E0,-7.454597E-2,-1.0530695E0,-7.516493E-2,1.0856674E0,-1.1231066E0,-4.4995013E-1,1.4101375E0,1.3282472E0,5.736443E-1,-1.343523E0,9.659016E-1,1.3602536E0,-3.591636E-1,6.987879E-2,-7.678387E-2,-8.326235E-2,7.263943E-2,1.0960711E0,1.4733901E0,6.957459E-2,2.864354E-2,5.3374924E-2,-8.401867E-2,-7.656648E-2,2.478755E-2,9.414698E-2,2.1547513E-2,7.483932E-2,2.3861993E-2,-8.536057E-2,7.2108775E-2,-7.9784885E-2,6.0470372E-2,4.7794614E-2,7.384638E-2],"categories":[],"categories_nodes":[],"categories_segments":[],"categories_sizes":[],"default_left":[0,0,0,0,0,0,0,0,0,0,0,0,0,0,0,0,0,0,0,0,0,0,0,0,0,0,0,0,0,0,0,0,0,0,0,0,0,0,0,0,0,0,0],"id":8,"left_children":[1,3,5,7,9,11,13,15,-1,17,-1,19,21,23,25,27,29,31,33,35,37,-1,-1,-1,-1,39,41,-1,-1,-1,-1,-1,-1,-1,-1,-1,-1,-1,-1,-1,-1,-1,-1],"loss_changes":[1.927641E4,3.309872E3,6.729834E2,2.705963E2,1.05234375E2,6.587243E2,2.2522559E2,6.2863953E1,0E0,3.476808E2,0E0,1.4139105E2,2.287201E2,1.5610262E2,1.0555957E2,2.0062622E1,1.7080975E2,1.792785E2,3.59178E1,3.5290894E1,1.4211073E2,0E0,0E0,0E0,0E0,2.7903088E2,6.803711E0,0E0,0E0,0E0,0E0,0E0,0E0,0E0,0E0,0E0,0E0,0E0,0E0,0E0,0E0,0E0,0E0],"parents":[2147483647,0,0,1,1,2,2,3,3,4,4,5,5,6,6,7,7,9,9,11,11,12,12,13,13,14,14,15,15,16,16,17,17,18,18,19,19,20,20,25,25,26,26],"right_children":[2,4,6,8,10,12,14,16,-1,18,-1,20,22,24,26,28,30,32,34,36,38,-1,-1,-1,-1,40,42,-1,-1,-1,-1,-1,-1,-1,-1,-1,-1,-1,-1,-1,-1,-1,-1],"split_conditions":[7.13225E1,1.4968147E0,8.944E1,5.3027E3,3.1773329E0,3.6568878E0,-1.7073E3,9.7044873E-1,-7.454597E-2,3.948E2,-7.516493E-2,5.691E1,2.1280043E-1,5.8621E3,1.817825E2,3.8393E2,2.6912117E-1,3.0250925E-1,1.45E1,1.7591901E-1,6.66213E4,6.987879E-2,-7.678387E-2,-8.326235E-2,7.263943E-2,-3.1522E2,3.890766E4,6.957459E-2,2.864354E-2,5.3374924E-2,-8.401867E-2,-7.656648E-2,2.478755E-2,9.414698E-2,2.1547513E-2,7.483932E-2,2.3861993E-2,-8.536057E-2,7.2108775E-2,-7.9784885E-2,6.0470372E-2,4.7794614E-2,7.384638E-2],"split_indices":[22,16,22,9,16,16,8,16,0,20,0,23,14,20,22,5,14,14,5,12,6,0,0,0,0,8,6,0,0,0,0,0,0,0,0,0,0,0,0,0,0,0,0],"split_type":[0,0,0,0,0,0,0,0,0,0,0,0,0,0,0,0,0,0,0,0,0,0,0,0,0,0,0,0,0,0,0,0,0,0,0,0,0,0,0,0,0,0,0],"sum_hessian":[1.2370057E4,6.3395815E3,6.0304746E3,6.27663E2,5.7119185E3,5.7102686E2,5.459448E3,5.864741E2,4.1188854E1,5.896767E2,5.1222417E3,3.5415897E2,2.1686787E2,6.546076E1,5.3939873E3,4.3563925E2,1.5083492E2,5.158062E2,7.387046E1,2.9764993E2,5.6509014E1,3.0167309E1,1.8670056E2,4.002271E1,2.5438057E1,9.073038E2,4.4866836E3,4.0120575E2,3.4433487E1,1.2415829E2,2.6676619E1,4.6816928E2,4.763692E1,2.6287462E1,4.7582996E1,2.5718808E2,4.0461864E1,3.2351067E1,2.4157948E1,3.6129887E1,8.711739E2,3.2302963E1,4.4543804E3],"tree_param":{"num_deleted":"0","num_feature":"33","num_nodes":"43","size_leaf_vector":"1"}},{"base_weights":[1.0366787E-2,-1.1935735E0,1.2459334E0,-1.3799667E0,6.686417E-1,4.6077773E-1,1.4009473E0,4.1949205E-2,-1.3941967E0,1.0806639E0,-5.472446E-1,-7.6346636E-2,1.0604105E0,4.0962636E-1,1.4157817E0,-1.0295691E0,-7.32949E-2,-7.99605E-2,1.2757273E0,-7.759821E-2,1.2246878E0,-5.8314335E-1,1.2432779E0,7.375991E-2,-8.54855E-2,1.57267E-2,1.4245455E0,-6.744411E-2,-2.2627504E-3,6.947003E-2,3.2873806E-2,4.949316E-2,7.244419E-2,8.294345E-2,-9.182335E-2,6.916956E-2,8.744708E-3,6.758263E-2,7.3002145E-2],"categories":[],"categories_nodes":[],"categories_segments":[],"categories_sizes":[],"default_left":[0,0,0,0,0,0,0,0,0,0,0,0,0,0,0,0,0,0,0,0,0,0,0,0,0,0,0,0,0,0,0,0,0,0,0,0,0,0,0],"id":9,"left_children":[1,3,5,7,9,11,13,-1,15,17,19,-1,21,23,25,27,-1,-1,29,-1,31,33,35,-1,-1,-1,37,-1,-1,-1,-1,-1,-1,-1,-1,-1,-1,-1,-1],"loss_changes":[1.808908E4,2.1387363E3,7.297783E2,1.7796094E2,2.8166263E2,1.1827676E3,7.311426E1,0E0,1.4394727E2,2.212721E2,2.5588737E2,0E0,2.2971802E2,1.7255655E2,4.720117E1,2.88352E2,0E0,0E0,2.6599731E1,0E0,1.3130035E0,2.1931659E2,1.024397E2,0E0,0E0,0E0,1.0699219E1,0E0,0E0,0E0,0E0,0E0,0E0,0E0,0E0,0E0,0E0,0E0,0E0],"parents":[2147483647,0,0,1,1,2,2,3,3,4,4,5,5,6,6,8,8,9,9,10,10,12,12,13,13,14,14,15,15,18,18,20,20,21,21,22,22,26,26],"right_children":[2,4,6,8,10,12,14,-1,16,18,20,-1,22,24,26,28,-1,-1,30,-1,32,34,36,-1,-1,-1,38,-1,-1,-1,-1,-1,-1,-1,-1,-1,-1,-1,-1],"split_conditions":[7.13225E1,1.7670337E0,1.23415E2,-9.203E3,3.7412E3,9.3138623E-1,-1.67189E3,4.1949205E-2,5.388957E-1,1.80477E3,1.0687922E0,-7.6346636E-2,1.05819E3,4.5E1,4.30782E4,2.10436E3,-7.32949E-2,-7.99605E-2,2.29E2,-7.759821E-2,3.39E2,2.1280043E-1,6.26799E3,7.375991E-2,-8.54855E-2,1.57267E-2,3.800975E2,-6.744411E-2,-2.2627504E-3,6.947003E-2,3.2873806E-2,4.949316E-2,7.244419E-2,8.294345E-2,-9.182335E-2,6.916956E-2,8.744708E-3,6.758263E-2,7.3002145E-2],"split_indices":[22,17,22,20,9,15,8,0,13,8,15,0,8,30,0,8,0,0,30,0,30,14,2,0,0,0,22,0,0,0,0,0,0,0,0,0,0,0,0],"split_type":[0,0,0,0,0,0,0,0,0,0,0,0,0,0,0,0,0,0,0,0,0,0,0,0,0,0,0,0,0,0,0,0,0,0,0,0,0,0,0],"sum_hessian":[1.2158331E4,6.157994E3,6.0003364E3,5.597943E3,5.600515E2,9.899826E2,5.0103535E3,3.530136E1,5.5626416E3,4.18386E2,1.416655E2,2.2907616E2,7.6090643E2,7.4292915E1,4.936061E3,9.166235E2,4.646018E3,2.7898907E1,3.904871E2,9.048367E1,5.1181824E1,7.596537E1,6.8494104E2,4.963905E1,2.4653868E1,3.9262417E1,4.8967983E3,6.918243E2,2.247992E2,3.2878793E2,6.1699158E1,2.764324E1,2.3538586E1,2.7122902E1,4.8842472E1,6.052683E2,7.9672775E1,1.6164791E3,3.2803193E3],"tree_param":{"num_deleted":"0","num_feature":"33","num_nodes":"39","size_leaf_vector":"1"}},{"base_weights":[-6.351241E-3,-1.0697584E0,1.0555526E0,-1.2999735E0,1.1764272E0,3.9701062E-1,1.3305005E0,-3.9299974E-1,-1.3682654E0,1.3435102E0,-7.9047926E-2,-2.632893E-1,9.6167845E-1,-4.2176437E-2,1.3448898E0,8.6927307E-1,-7.215539E-2,-1.4061867E0,2.0589487E-1,7.17266E-2,1.101815E-2,4.0774196E-1,-7.47051E-2,1.0864482E0,-8.158977E-2,-7.749949E-2,6.502663E-2,1.0074422E0,1.3806847E0,-7.178478E-2,6.534633E-2,-7.1004994E-2,-3.3693302E-2,5.715267E-2,-7.672616E-2,4.0548604E-2,-7.937988E-2,-1.1721711E-4,6.3220434E-2,6.1342906E-2,-1.9463334E-2,6.9327824E-2,4.78994E-2],"categories":[],"categories_nodes":[],"categories_segments":[],"categories_sizes":[],"default_left":[0,0,0,0,0,0,0,0,0,0,0,0,0,0,0,0,0,0,0,0,0,0,0,0,0,0,0,0,0,0,0,0,0,0,0,0,0,0,0,0,0,0,0],"id":10,"left_children":[1,3,5,7,9,11,13,15,17,19,-1,21,23,25,27,29,-1,31,33,-1,-1,35,-1,37,-1,-1,-1,39,41,-1,-1,-1,-1,-1,-1,-1,-1,-1,-1,-1,-1,-1,-1],"loss_changes":[1.3206802E4,3.023254E3,1.0590283E3,3.277871E2,2.5264111E2,6.43421E2,8.158838E1,4.951228E2,2.945332E2,5.215222E1,0E0,6.5799713E2,3.027256E2,9.0673256E1,4.795166E1,1.7319038E2,0E0,4.808496E1,1.9229674E2,0E0,0E0,4.163711E2,0E0,1.7205627E2,0E0,0E0,0E0,1.2167142E2,7.831543E0,0E0,0E0,0E0,0E0,0E0,0E0,0E0,0E0,0E0,0E0,0E0,0E0,0E0,0E0],"parents":[2147483647,0,0,1,1,2,2,3,3,4,4,5,5,6,6,7,7,8,8,9,9,11,11,12,12,13,13,14,14,15,15,17,17,18,18,21,21,23,23,27,27,28,28],"right_children":[2,4,6,8,10,12,14,16,18,20,-1,22,24,26,28,30,-1,32,34,-1,-1,36,-1,38,-1,-1,-1,40,42,-1,-1,-1,-1,-1,-1,-1,-1,-1,-1,-1,-1,-1,-1],"split_conditions":[9.2381024E-1,1.817825E2,1.6336485E4,-3.94871E3,1.35E2,4.37525E1,-1.51812E3,5.388957E-1,1.3E3,2.2710593E-1,-7.9047926E-2,2.1112695E0,8.36472E3,7.53248E4,4.0914354E-1,8.441756E-1,-7.215539E-2,2.10389E3,-1.2615E2,7.17266E-2,1.101815E-2,5.29241E4,-7.47051E-2,-5E-1,-8.158977E-2,-7.749949E-2,6.502663E-2,5.275666E-1,2.3560598E1,-7.178478E-2,6.534633E-2,-7.1004994E-2,-3.3693302E-2,5.715267E-2,-7.672616E-2,4.0548604E-2,-7.937988E-2,-1.1721711E-4,6.3220434E-2,6.1342906E-2,-1.9463334E-2,6.9327824E-2,4.78994E-2],"split_indices":[15,23,11,21,30,23,8,13,11,14,0,16,2,24,10,15,0,5,21,0,0,0,0,27,0,0,0,13,16,0,0,0,0,0,0,0,0,0,0,0,0,0,0],"split_type":[0,0,0,0,0,0,0,0,0,0,0,0,0,0,0,0,0,0,0,0,0,0,0,0,0,0,0,0,0,0,0,0,0,0,0,0,0,0,0,0,0,0,0],"sum_hessian":[1.1693342E4,5.8425317E3,5.8508105E3,5.299771E3,5.427606E2,1.7240037E3,4.1268066E3,3.715838E2,4.928187E3,5.122347E2,3.0525946E1,7.9495215E2,9.2905145E2,4.279108E1,4.0840156E3,1.688234E2,2.027604E2,4.8123647E3,1.1582228E2,4.735779E2,3.865679E1,5.1490045E2,2.8005173E2,8.869616E2,4.2089863E1,2.0083582E1,2.27075E1,3.944636E2,3.689552E3,2.6576069E1,1.4224733E2,4.7217188E3,9.064632E1,7.550729E1,4.031499E1,4.2883292E2,8.606753E1,1.2474393E2,7.6221765E2,3.4101367E2,5.344992E1,3.636754E3,5.2798054E1],"tree_param":{"num_deleted":"0","num_feature":"33","num_nodes":"43","size_leaf_vector":"1"}},{"base_weights":[1.1603758E-3,-1.1624377E0,1.1901269E0,9.6204793E-1,-1.3597583E0,2.9549533E-1,1.3025513E0,1.1867322E0,6.758765E-2,-9.891392E-1,-7.029479E-2,1.1291808E0,-9.228192E-1,-7.405516E-2,1.3186702E0,1.256103E0,2.1076178E-2,-7.645164E-2,8.670491E-1,-1.2685444E0,9.6921813E-1,-7.644232E-2,1.3171778E0,-7.539249E-2,6.37893E-1,1.0462056E0,1.368148E0,6.739455E-2,4.593934E-2,8.123166E-2,1.8306935E-2,-7.228785E-2,1.4384093E-2,9.182853E-2,2.2357794E-2,7.144406E-2,2.1621887E-2,8.005423E-2,1.550496E-3,-7.592675E-2,5.758077E-2,2.8949121E-2,6.871743E-2],"categories":[],"categories_nodes":[],"categories_segments":[],"categories_sizes":[],"default_left":[0,0,0,0,0,0,0,0,0,0,0,0,0,0,0,0,0,0,0,0,0,0,0,0,0,0,0,0,0,0,0,0,0,0,0,0,0,0,0,0,0,0,0],"id":11,"left_children":[1,3,5,7,9,11,13,15,17,19,-1,21,23,-1,25,27,-1,-1,29,31,33,-1,35,-1,37,39,41,-1,-1,-1,-1,-1,-1,-1,-1,-1,-1,-1,-1,-1,-1,-1,-1],"loss_changes":[1.5807694E4,2.4220596E3,5.680254E2,9.866632E1,8.89668E1,6.4316077E2,2.2720898E2,2.0313232E1,1.285932E2,3.2317505E2,0E0,1.8980093E2,2.359844E2,0E0,6.5862305E1,9.892212E0,0E0,0E0,2.4859425E1,1.4253967E2,3.2700996E1,0E0,3.412152E1,0E0,4.138405E1,2.1030164E2,1.9861328E1,0E0,0E0,0E0,0E0,0E0,0E0,0E0,0E0,0E0,0E0,0E0,0E0,0E0,0E0,0E0,0E0],"parents":[2147483647,0,0,1,1,2,2,3,3,4,4,5,5,6,6,7,7,8,8,9,9,11,11,12,12,14,14,15,15,18,18,19,19,20,20,22,22,24,24,25,25,26,26],"right_children":[2,4,6,8,10,12,14,16,18,20,-1,22,24,-1,26,28,-1,-1,30,32,34,-1,36,-1,38,40,42,-1,-1,-1,-1,-1,-1,-1,-1,-1,-1,-1,-1,-1,-1,-1,-1],"split_conditions":[7.13225E1,1.3318999E0,9.378E1,9.7044873E-1,3.1773329E0,5.691E1,-2.01401E3,2.80559E3,6.11593E3,3.948E2,-7.029479E-2,1.26502E3,1.095075E2,-7.405516E-2,1.817825E2,2.29E2,2.1076178E-2,-7.645164E-2,3.70053E4,1.4607011E-1,4.257E2,-7.644232E-2,1.7591901E-1,-7.539249E-2,5.5E1,-3.1522E2,4.31638E4,6.739455E-2,4.593934E-2,8.123166E-2,1.8306935E-2,-7.228785E-2,1.4384093E-2,9.182853E-2,2.2357794E-2,7.144406E-2,2.1621887E-2,8.005423E-2,1.550496E-3,-7.592675E-2,5.758077E-2,2.8949121E-2,6.871743E-2],"split_indices":[22,16,22,16,16,23,8,4,1,20,0,8,23,0,22,30,0,0,0,10,20,0,12,0,30,8,24,0,0,0,0,0,0,0,0,0,0,0,0,0,0,0,0],"split_type":[0,0,0,0,0,0,0,0,0,0,0,0,0,0,0,0,0,0,0,0,0,0,0,0,0,0,0,0,0,0,0,0,0,0,0,0,0,0,0,0,0,0,0],"sum_hessian":[1.1424045E4,5.773628E3,5.6504165E3,4.903469E2,5.2832812E3,6.311988E2,5.019218E3,3.9164163E2,9.8705284E1,5.873775E2,4.695904E3,3.747991E2,2.563997E2,2.837358E1,4.990844E3,3.5849988E2,3.3141747E1,3.2628895E1,6.607639E1,5.143463E2,7.303122E1,2.4286594E1,3.505125E2,1.8651767E2,6.9882E1,7.704218E2,4.2204224E3,2.7945963E2,7.904025E1,2.5407045E1,4.0669346E1,4.6182748E2,5.2518803E1,2.649485E1,4.653637E1,3.1067325E2,3.9839264E1,2.6378368E1,4.350364E1,2.9884779E1,7.4053705E2,3.363763E1,4.1867847E3],"tree_param":{"num_deleted":"0","num_feature":"33","num_nodes":"43","size_leaf_vector":"1"}},{"base_weights":[2.1362495E-2,-1.1597711E0,1.1706709E0,-6.897566E-2,1.2608482E-1,5.512817E-1,1.3108773E0,5.4471815E-1,-1.1170955E0,-1.1570597E0,1.0448897E0,-7.233355E-2,1.3244492E0,8.9173037E-1,-7.65281E-2,-7.1259335E-2,5.9080936E-2,5.4667275E-2,-1.4895917E0,1.2207066E0,7.304633E-2,-9.815612E-2,7.69342E-2,5.5774105E-1,1.3353164E0,5.601412E-2,-3.3281025E-2,-7.0141844E-2,-8.502248E-2,6.356084E-2,9.026448E-3,-8.514314E-2,6.73036E-2,2.1472648E-3,6.998842E-2,5.5467833E-2,6.7609675E-2],"categories":[],"categories_nodes":[],"categories_segments":[],"categories_sizes":[],"default_left":[0,0,0,0,0,0,0,0,0,0,0,0,0,0,0,0,0,0,0,0,0,0,0,0,0,0,0,0,0,0,0,0,0,0,0,0,0],"id":12,"left_children":[1,3,5,-1,7,9,11,13,15,17,19,21,23,25,-1,-1,-1,-1,27,29,31,-1,-1,33,35,-1,-1,-1,-1,-1,-1,-1,-1,-1,-1,-1,-1],"loss_changes":[1.5401591E4,1.5811836E3,4.98646E2,0E0,4.2609723E2,8.976836E2,8.810596E1,4.422959E2,1.4777603E2,1.8032434E2,1.4093127E2,1.4466702E2,3.7938477E1,1.8768198E2,0E0,0E0,0E0,0E0,1.4281616E0,3.6486572E1,2.905416E2,0E0,0E0,2.8810215E1,1.5954102E1,0E0,0E0,0E0,0E0,0E0,0E0,0E0,0E0,0E0,0E0,0E0,0E0],"parents":[2147483647,0,0,1,1,2,2,4,4,5,5,6,6,7,7,8,8,9,9,10,10,11,11,12,12,13,13,18,18,19,19,20,20,23,23,24,24],"right_children":[2,4,6,-1,8,10,12,14,16,18,20,22,24,26,-1,-1,-1,-1,28,30,32,-1,-1,34,36,-1,-1,-1,-1,-1,-1,-1,-1,-1,-1,-1,-1],"split_conditions":[7.13225E1,9.4701403E-1,1.23415E2,-6.897566E-2,4.6753E3,9.0571E2,4.34214E4,3.7716E2,3.61E2,2.1280043E-1,6.26799E3,6.414825E-1,-1.7073E3,2.29E2,-7.65281E-2,-7.1259335E-2,5.9080936E-2,5.4667275E-2,9.1788656E-1,2.89E2,6.383854E4,-9.815612E-2,7.69342E-2,4.5515E3,1.817825E2,5.601412E-2,-3.3281025E-2,-7.0141844E-2,-8.502248E-2,6.356084E-2,9.026448E-3,-8.514314E-2,6.73036E-2,2.1472648E-3,6.998842E-2,5.5467833E-2,6.7609675E-2],"split_indices":[22,15,22,0,9,8,0,21,30,14,2,10,8,30,0,0,0,0,15,30,6,0,0,20,22,0,0,0,0,0,0,0,0,0,0,0,0],"split_type":[0,0,0,0,0,0,0,0,0,0,0,0,0,0,0,0,0,0,0,0,0,0,0,0,0,0,0,0,0,0,0,0,0,0,0,0,0],"sum_hessian":[1.1343666E4,5.594372E3,5.749294E3,4.777811E3,8.16561E2,1.0621171E3,4.687177E3,6.1127856E2,2.0528244E2,2.3779205E2,8.24325E2,4.5500996E1,4.641676E3,5.241967E2,8.70818E1,1.8135577E2,2.3926672E1,3.0319221E1,2.0747282E2,6.978249E2,1.2650009E2,2.0832335E1,2.4668663E1,6.560249E1,4.576073E3,4.5735706E2,6.683968E1,1.5241612E2,5.5056705E1,6.6529645E2,3.252845E1,5.2676765E1,7.3823326E1,4.1364323E1,2.423817E1,3.2267392E2,4.2533994E3],"tree_param":{"num_deleted":"0","num_feature":"33","num_nodes":"37","size_leaf_vector":"1"}},{"base_weights":[8.113701E-4,1.0370681E0,-1.0489317E0,5.3774095E-1,1.2521349E0,-1.2224176E0,1.1612483E0,7.3581105E-1,-8.017709E-1,1.273419E0,5.445873E-1,-1.2479715E0,1.218442E0,1.2866287E0,5.55028E-4,-4.9576733E-1,9.179332E-1,-7.35487E-2,8.465366E-1,1.2795525E0,2.2223359E-2,1.1630869E0,-3.4203684E-1,-1.2726629E0,7.7638793E-1,4.18344E-2,7.8628756E-2,3.5592157E-2,6.645902E-2,3.759364E-2,-8.093284E-2,-3.1783983E-2,5.0274618E-2,7.743016E-2,1.4456865E-2,5.9762474E-2,6.597253E-2,6.6918395E-2,4.1219305E-2,-8.637179E-2,6.60095E-2,-3.501237E-2,-6.621713E-2,9.831061E-3,7.729127E-2],"categories":[],"categories_nodes":[],"categories_segments":[],"categories_sizes":[],"default_left":[0,0,0,0,0,0,0,0,0,0,0,0,0,0,0,0,0,0,0,0,0,0,0,0,0,0,0,0,0,0,0,0,0,0,0,0,0,0,0,0,0,0,0,0,0],"id":13,"left_children":[1,3,5,7,9,11,13,15,17,19,21,23,25,27,-1,29,31,-1,33,35,-1,37,39,41,43,-1,-1,-1,-1,-1,-1,-1,-1,-1,-1,-1,-1,-1,-1,-1,-1,-1,-1,-1,-1],"loss_changes":[1.1805143E4,5.857993E2,2.06854E3,4.3725992E2,5.6779297E1,3.133369E2,5.664142E1,3.2217572E2,2.3563774E2,1.8264648E1,6.247249E1,2.4830322E2,5.754936E0,7.7182007E0,0E0,2.6099902E2,1.7066882E2,0E0,2.381263E1,1.07890625E1,0E0,2.8688583E0,1.1117936E2,1.4368945E2,2.657042E1,0E0,0E0,0E0,0E0,0E0,0E0,0E0,0E0,0E0,0E0,0E0,0E0,0E0,0E0,0E0,0E0,0E0,0E0,0E0,0E0],"parents":[2147483647,0,0,1,1,2,2,3,3,4,4,5,5,6,6,7,7,8,8,9,9,10,10,11,11,12,12,13,13,15,15,16,16,18,18,19,19,21,21,22,22,23,23,24,24],"right_children":[2,4,6,8,10,12,14,16,18,20,22,24,26,28,-1,30,32,-1,34,36,-1,38,40,42,44,-1,-1,-1,-1,-1,-1,-1,-1,-1,-1,-1,-1,-1,-1,-1,-1,-1,-1,-1,-1],"split_conditions":[4.8709E3,1.9447186E4,1.817825E2,1.19925E3,2.3560598E1,1.0687922E0,1.3566823E-1,1.05234E3,4.71771E3,7.07236E3,5.3863E2,7.34858E4,2.85147E3,3.800975E2,5.55028E-4,-2.02162E3,2.11875E1,-7.35487E-2,4.7303433E0,4.021507E4,2.2223359E-2,9.2619E2,4.021507E4,4.198517E-1,1E0,4.18344E-2,7.8628756E-2,3.5592157E-2,6.645902E-2,3.759364E-2,-8.093284E-2,-3.1783983E-2,5.0274618E-2,7.743016E-2,1.4456865E-2,5.9762474E-2,6.597253E-2,6.6918395E-2,4.1219305E-2,-8.637179E-2,6.60095E-2,-3.501237E-2,-6.621713E-2,9.831061E-3,7.729127E-2],"split_indices":[9,11,23,21,16,15,12,4,4,3,21,0,2,23,0,21,23,0,16,11,0,3,11,13,25,0,0,0,0,0,0,0,0,0,0,0,0,0,0,0,0,0,0,0,0],"split_type":[0,0,0,0,0,0,0,0,0,0,0,0,0,0,0,0,0,0,0,0,0,0,0,0,0,0,0,0,0,0,0,0,0,0,0,0,0,0,0,0,0,0,0,0,0],"sum_hessian":[1.0850275E4,5.4602183E3,5.3900576E3,1.6448407E3,3.8153777E3,4.9981772E3,3.918801E2,1.4333462E3,2.1149448E2,3.7031804E3,1.1219712E2,4.946876E3,5.130124E1,3.532525E2,3.8627583E1,1.8443118E2,1.248915E3,1.5049997E2,6.09945E1,3.6754421E3,2.7738297E1,6.590834E1,4.6288776E1,4.8876323E3,5.9243694E1,2.6306059E1,2.4995182E1,2.5570992E1,3.2768152E2,8.7519196E1,9.691199E1,6.629761E1,1.1826174E3,2.6207209E1,3.4787292E1,1.190634E3,2.484808E3,4.1486977E1,2.442137E1,2.5225288E1,2.1063488E1,4.0593695E2,4.4816953E3,3.4502098E1,2.4741596E1],"tree_param":{"num_deleted":"0","num_feature":"33","num_nodes":"45","size_leaf_vector":"1"}},{"base_weights":[2.9476235E-2,-1.1038156E0,1.128062E0,1.0845779E0,-1.2572569E0,5.9099764E-1,1.2612332E0,1.175124E0,9.56969E-3,-7.586875E-1,-6.662878E-2,1.071604E0,-1.114884E0,6.9371685E-3,1.2712754E0,8.736566E-1,1.3057477E0,-5.5197254E-2,-6.998604E-2,1.2113435E0,1.5928543E-1,4.6737302E-2,-7.1043864E-2,1.0960728E0,1.3057798E0,7.3617296E-3,6.2000502E-2,4.8546225E-2,6.695794E-2,-4.4974923E-2,5.4703962E-2,6.2517166E-2,1.1491978E-2,5.9641358E-2,-8.28343E-2,6.391298E-2,3.390272E-2,6.608673E-2,6.161357E-2],"categories":[],"categories_nodes":[],"categories_segments":[],"categories_sizes":[],"default_left":[0,0,0,0,0,0,0,0,0,0,0,0,0,0,0,0,0,0,0,0,0,0,0,0,0,0,0,0,0,0,0,0,0,0,0,0,0,0,0],"id":14,"left_children":[1,3,5,7,9,11,13,15,-1,17,-1,19,21,-1,23,25,27,29,-1,31,33,-1,-1,35,37,-1,-1,-1,-1,-1,-1,-1,-1,-1,-1,-1,-1,-1,-1],"loss_changes":[1.3419112E4,1.7828413E3,3.9068604E2,2.7931671E1,1.8517676E2,8.94275E2,4.9248047E1,1.1299408E1,0E0,2.9442123E2,0E0,1.0821985E2,1.5180505E2,0E0,2.4839355E1,2.6037354E1,1.1429138E0,3.041137E2,0E0,2.7934448E1,2.1613486E2,0E0,0E0,5.4060547E1,2.6230469E0,0E0,0E0,0E0,0E0,0E0,0E0,0E0,0E0,0E0,0E0,0E0,0E0,0E0,0E0],"parents":[2147483647,0,0,1,1,2,2,3,3,4,4,5,5,6,6,7,7,9,9,11,11,12,12,14,14,15,15,16,16,17,17,19,19,20,20,23,23,24,24],"right_children":[2,4,6,8,10,12,14,16,-1,18,-1,20,22,-1,24,26,28,30,-1,32,34,-1,-1,36,38,-1,-1,-1,-1,-1,-1,-1,-1,-1,-1,-1,-1,-1,-1],"split_conditions":[7.13225E1,9.7044873E-1,1.23415E2,2.54588E3,3.1773329E0,4.7303433E0,4.25387E4,-2.4492937E-16,9.56969E-3,6.49004E3,-6.662878E-2,6.26799E3,2.1280043E-1,6.9371685E-3,2.398475E2,4.1614844E4,-3.7333E3,5.97208E3,-6.998604E-2,1.095075E2,1.1279408E0,4.6737302E-2,-7.1043864E-2,2.40444E0,2.0093596E1,7.3617296E-3,6.2000502E-2,4.8546225E-2,6.695794E-2,-4.4974923E-2,5.4703962E-2,6.2517166E-2,1.1491978E-2,5.9641358E-2,-8.28343E-2,6.391298E-2,3.390272E-2,6.608673E-2,6.161357E-2],"split_indices":[22,16,22,4,16,16,24,27,0,18,0,2,14,0,22,11,19,18,0,22,16,0,0,16,16,0,0,0,0,0,0,0,0,0,0,0,0,0,0],"split_type":[0,0,0,0,0,0,0,0,0,0,0,0,0,0,0,0,0,0,0,0,0,0,0,0,0,0,0,0,0,0,0,0,0,0,0,0,0,0,0],"sum_hessian":[1.0776246E4,5.3043345E3,5.4719116E3,3.4715213E2,4.9571826E3,1.0883116E3,4.3835996E3,3.1491238E2,3.223975E1,6.5204706E2,4.3051353E3,8.493827E2,2.3892892E2,3.9000908E1,4.3445986E3,9.752403E1,2.1738835E2,3.1139664E2,3.4065045E2,7.3627924E2,1.1310344E2,3.0769722E1,2.081592E2,7.202345E2,3.6243643E3,3.3164963E1,6.435907E1,2.2451855E1,1.949365E2,1.7964217E2,1.3175447E2,7.07878E2,2.840127E1,7.2298584E1,4.0804855E1,5.0018063E2,2.200539E2,2.9640403E3,6.60324E2],"tree_param":{"num_deleted":"0","num_feature":"33","num_nodes":"39","size_leaf_vector":"1"}},{"base_weights":[3.61547E-2,-7.700788E-1,1.1075234E0,9.335549E-1,-1.0040907E0,-7.140177E-2,1.1386529E0,-6.736376E-2,1.2885652E0,5.094783E-1,-1.1445383E0,7.460035E-1,1.2344575E0,1.3329937E0,1.7825458E-2,-7.04433E-2,9.2705226E-1,-5.934239E-1,-1.281536E0,9.056046E-1,-8.421239E-2,1.2467357E0,6.438435E-1,1.0253327E-1,6.481433E-2,-1.2294956E-2,5.5049773E-2,-6.751861E-2,1.2406279E-2,-6.5700464E-2,-3.3550386E-3,-9.595902E-2,4.898201E-2,6.256846E-2,2.807504E-2,-2.6977619E-3,6.1360955E-2],"categories":[],"categories_nodes":[],"categories_segments":[],"categories_sizes":[],"default_left":[0,0,0,0,0,0,0,0,0,0,0,0,0,0,0,0,0,0,0,0,0,0,0,0,0,0,0,0,0,0,0,0,0,0,0,0,0],"id":15,"left_children":[1,3,5,7,9,-1,11,-1,13,15,17,19,21,23,-1,-1,25,27,29,31,-1,33,35,-1,-1,-1,-1,-1,-1,-1,-1,-1,-1,-1,-1,-1,-1],"loss_changes":[9.058255E3,2.3865286E3,3.570503E2,5.8732196E2,1.1190952E3,0E0,1.664375E2,0E0,2.545996E1,3.597578E2,3.6279346E2,3.4096384E2,2.5120117E1,1.3080688E1,0E0,0E0,7.5370575E1,6.1220123E2,1.5196631E2,1.7375812E2,0E0,1.0413086E1,3.0544157E1,0E0,0E0,0E0,0E0,0E0,0E0,0E0,0E0,0E0,0E0,0E0,0E0,0E0,0E0],"parents":[2147483647,0,0,1,1,2,2,3,3,4,4,6,6,8,8,9,9,10,10,11,11,12,12,13,13,16,16,17,17,18,18,19,19,21,21,22,22],"right_children":[2,4,6,8,10,-1,12,-1,14,16,18,20,22,24,-1,-1,26,28,30,32,-1,34,36,-1,-1,-1,-1,-1,-1,-1,-1,-1,-1,-1,-1,-1,-1],"split_conditions":[5.1617145E2,2.2525644E-1,-1.60987E3,6.1445E1,1.8641821E0,-7.140177E-2,2.3108242E4,-6.736376E-2,1.26221E3,2.7261585E-1,5.4547787E-1,6.6277415E-1,2.3560598E1,4.129975E4,1.7825458E-2,-7.04433E-2,1.89E1,3.91398E3,2.307902E4,-4.9334E3,-8.421239E-2,1.156595E4,9.166875E2,1.0253327E-1,6.481433E-2,-1.2294956E-2,5.5049773E-2,-6.751861E-2,1.2406279E-2,-6.5700464E-2,-3.3550386E-3,-9.595902E-2,4.898201E-2,6.256846E-2,2.807504E-2,-2.6977619E-3,6.1360955E-2],"split_indices":[11,14,8,23,16,0,11,0,21,7,13,13,16,6,0,0,23,18,1,20,0,1,23,0,0,0,0,0,0,0,0,0,0,0,0,0,0],"split_type":[0,0,0,0,0,0,0,0,0,0,0,0,0,0,0,0,0,0,0,0,0,0,0,0,0,0,0,0,0,0,0,0,0,0,0,0,0],"sum_hessian":[1.0484855E4,5.9828687E3,4.501987E3,7.2219727E2,5.2606714E3,5.405712E1,4.4479297E3,9.6893265E1,6.25304E2,4.4647696E2,4.8141943E3,8.7413324E2,3.5737964E3,5.9644305E2,2.8860983E1,7.9388855E1,3.670881E2,9.5952924E2,3.854665E3,8.2085297E2,5.3280243E1,3.4999265E3,7.3869896E1,2.6352467E1,5.700906E2,4.735374E1,3.1973438E2,5.0483807E2,4.5469116E2,3.754198E3,1.0046716E2,2.0327997E1,8.0052496E2,3.4755984E3,2.432814E1,3.4049477E1,3.982042E1],"tree_param":{"num_deleted":"0","num_feature":"33","num_nodes":"37","size_leaf_vector":"1"}},{"base_weights":[4.8032705E-2,-1.0177915E0,1.084813E0,8.635743E-1,-1.2095146E0,5.6581545E-1,1.2526323E0,1.0831695E0,1.9949814E-2,-8.2022405E-1,-6.458149E-2,1.012886E0,-8.849994E-1,5.696451E-1,1.2626942E0,4.5569444E-1,1.1746694E0,-7.1967244E-2,7.5812507E-1,1.4983164E-1,-1.1697927E0,1.1693494E0,2.5757074E-1,-1.4241008E0,4.9199757E-1,4.036827E-3,6.739982E-2,1.1554424E0,1.2739561E0,8.909637E-4,5.155419E-2,2.2306092E-2,6.1834473E-2,7.70778E-2,1.2452218E-2,-7.10602E-2,4.320908E-2,-6.569832E-2,8.128369E-3,6.2638097E-3,6.036032E-2,-8.462288E-2,5.122695E-2,-6.712889E-2,-8.41831E-2,5.8630165E-2,-1.2371755E-2,6.082767E-2,1.5556635E-2,6.380292E-2,4.4074684E-2],"categories":[],"categories_nodes":[],"categories_segments":[],"categories_sizes":[],"default_left":[0,0,0,0,0,0,0,0,0,0,0,0,0,0,0,0,0,0,0,0,0,0,0,0,0,0,0,0,0,0,0,0,0,0,0,0,0,0,0,0,0,0,0,0,0,0,0,0,0,0,0],"id":16,"left_children":[1,3,5,7,9,11,13,15,17,19,-1,21,23,25,27,29,31,-1,33,35,37,39,41,43,45,-1,-1,47,49,-1,-1,-1,-1,-1,-1,-1,-1,-1,-1,-1,-1,-1,-1,-1,-1,-1,-1,-1,-1,-1,-1],"loss_changes":[1.1364058E4,1.8301548E3,4.5333203E2,8.696658E1,1.4606494E2,8.28262E2,2.6345703E1,2.0854706E1,1.0665843E2,2.7296393E2,0E0,1.1499097E2,2.2415538E2,2.234378E1,3.2148438E0,1.2338982E1,1.4111145E1,0E0,2.5833092E1,2.4137637E2,1.1382837E2,3.178064E1,2.540326E2,2.3223877E0,4.32861E1,0E0,0E0,1.920169E1,1.7641602E0,0E0,0E0,0E0,0E0,0E0,0E0,0E0,0E0,0E0,0E0,0E0,0E0,0E0,0E0,0E0,0E0,0E0,0E0,0E0,0E0,0E0,0E0],"parents":[2147483647,0,0,1,1,2,2,3,3,4,4,5,5,6,6,7,7,8,8,9,9,11,11,12,12,13,13,14,14,15,15,16,16,18,18,19,19,20,20,21,21,22,22,23,23,24,24,27,27,28,28],"right_children":[2,4,6,8,10,12,14,16,18,20,-1,22,24,26,28,30,32,-1,34,36,38,40,42,44,46,-1,-1,48,50,-1,-1,-1,-1,-1,-1,-1,-1,-1,-1,-1,-1,-1,-1,-1,-1,-1,-1,-1,-1,-1,-1],"split_conditions":[7.13225E1,1.3318999E0,1.817825E2,9.7044873E-1,5.388957E-1,4.7303433E0,-1.7073E3,-6.8545E3,6.11593E3,3.1773329E0,-6.458149E-2,5.1977E3,3.1059307E-1,4.5515E3,2.398475E2,7.282424E-1,6.39495E3,-7.1967244E-2,1.1182264E-1,-2.7751E3,9.4701403E-1,9.0571E2,9.8924774E-1,1.012775E2,-3.4217E3,4.036827E-3,6.739982E-2,7.8E1,8.6377716E-1,8.909637E-4,5.155419E-2,2.2306092E-2,6.1834473E-2,7.70778E-2,1.2452218E-2,-7.10602E-2,4.320908E-2,-6.569832E-2,8.128369E-3,6.2638097E-3,6.036032E-2,-8.462288E-2,5.122695E-2,-6.712889E-2,-8.41831E-2,5.8630165E-2,-1.2371755E-2,6.082767E-2,1.5556635E-2,6.380292E-2,4.4074684E-2],"split_indices":[22,16,22,16,13,16,8,20,1,16,0,2,10,20,22,10,18,0,12,20,15,8,15,22,20,0,0,19,7,0,0,0,0,0,0,0,0,0,0,0,0,0,0,0,0,0,0,0,0,0,0],"split_type":[0,0,0,0,0,0,0,0,0,0,0,0,0,0,0,0,0,0,0,0,0,0,0,0,0,0,0,0,0,0,0,0,0,0,0,0,0,0,0,0,0,0,0,0,0,0,0,0,0,0,0],"sum_hessian":[1.0281979E4,5.0699844E3,5.211994E3,4.6855737E2,4.601427E3,1.2745848E3,3.9374092E3,3.7155725E2,9.700012E1,8.034467E2,3.79798E3,9.745712E2,3.000136E2,5.800158E1,3.8794077E3,4.8047108E1,3.2351013E2,3.226525E1,6.473487E1,2.1298447E2,5.904623E2,8.068784E2,1.676928E2,2.1557909E2,8.4434525E1,3.630249E1,2.1699087E1,3.7848654E2,3.5009211E3,2.7869328E1,2.0177778E1,2.6022139E1,2.97488E2,2.4698267E1,4.0036602E1,6.626391E1,1.4672055E2,5.3282E2,5.764226E1,2.838366E1,7.7849475E2,4.699659E1,1.2069621E2,1.6875044E2,4.6828648E1,4.366113E1,4.07734E1,3.5252963E2,2.5956905E1,3.4800286E3,2.089268E1],"tree_param":{"num_deleted":"0","num_feature":"33","num_nodes":"51","size_leaf_vector":"1"}},{"base_weights":[2.446468E-2,-9.287754E-1,1.1082706E0,-1.1527172E0,6.894356E-1,5.8823687E-1,1.2102587E0,-1.2333583E0,-5.516017E-1,9.3402714E-1,-7.9265594E-1,-2.7406842E-1,9.8014474E-1,5.409702E-3,1.2210834E0,-4.10609E-1,-1.2544338E0,-1.107848E0,2.8029105E-1,1.0235591E0,-5.94074E-3,-6.920538E-2,5.9874695E-2,-7.32032E-2,7.394684E-1,2.7247703E-1,1.0830888E0,1.0566304E0,1.2475599E0,7.329411E-2,-6.371855E-2,-2.678754E-2,-6.380376E-2,-6.606264E-2,6.703679E-2,4.4442598E-2,-6.9945596E-2,5.6262065E-2,2.3900969E-2,-4.2125206E-3,6.900781E-2,-2.2272471E-2,7.330576E-2,2.359025E-2,6.0738124E-2,4.8240153E-3,5.6513138E-2,5.90326E-2,6.311728E-2],"categories":[],"categories_nodes":[],"categories_segments":[],"categories_sizes":[],"default_left":[0,0,0,0,0,0,0,0,0,0,0,0,0,0,0,0,0,0,0,0,0,0,0,0,0,0,0,0,0,0,0,0,0,0,0,0,0,0,0,0,0,0,0,0,0,0,0,0,0],"id":17,"left_children":[1,3,5,7,9,11,13,15,17,19,21,23,25,-1,27,29,31,33,35,37,-1,-1,-1,-1,39,41,43,45,47,-1,-1,-1,-1,-1,-1,-1,-1,-1,-1,-1,-1,-1,-1,-1,-1,-1,-1,-1,-1],"loss_changes":[1.004542E4,1.8755151E3,2.4060889E2,2.1962549E2,2.2894489E2,2.5304413E2,4.5237305E1,6.895508E1,2.4990279E2,5.1099243E1,1.0725845E2,2.839201E2,3.7184326E1,0E0,1.5078613E1,1.6646594E2,6.006543E1,1.7078491E2,2.2292966E2,2.7115906E1,0E0,0E0,0E0,0E0,6.730183E1,5.778732E1,3.5551025E1,3.7273743E1,1.7128906E0,0E0,0E0,0E0,0E0,0E0,0E0,0E0,0E0,0E0,0E0,0E0,0E0,0E0,0E0,0E0,0E0,0E0,0E0,0E0,0E0],"parents":[2147483647,0,0,1,1,2,2,3,3,4,4,5,5,6,6,7,7,8,8,9,9,10,10,11,11,12,12,14,14,15,15,16,16,17,17,18,18,19,19,24,24,25,25,26,26,27,27,28,28],"right_children":[2,4,6,8,10,12,14,16,18,20,22,24,26,-1,28,30,32,34,36,38,-1,-1,-1,-1,40,42,44,46,48,-1,-1,-1,-1,-1,-1,-1,-1,-1,-1,-1,-1,-1,-1,-1,-1,-1,-1,-1,-1],"split_conditions":[8.0015E1,1.7670337E0,1.425525E2,8.7698096E-1,4.21E3,9.568937E-1,4.29791E4,-4.89181E3,4.56125E1,5.8737E2,3.5E2,6.123234E-17,4.113341E3,5.409702E-3,2.398475E2,-7.0710677E-1,2.2525644E-1,1.3057258E0,-1.8369701E-16,2.29E2,-5.94074E-3,-6.920538E-2,5.9874695E-2,-7.32032E-2,5.88948E4,1.80457E3,1.6978043E4,2.5312895E-1,3.800975E2,7.329411E-2,-6.371855E-2,-2.678754E-2,-6.380376E-2,-6.606264E-2,6.703679E-2,4.4442598E-2,-6.9945596E-2,5.6262065E-2,2.3900969E-2,-4.2125206E-3,6.900781E-2,-2.2272471E-2,7.330576E-2,2.359025E-2,6.0738124E-2,4.8240153E-3,5.6513138E-2,5.90326E-2,6.311728E-2],"split_indices":[22,17,22,17,9,15,0,21,22,21,30,28,18,0,22,25,14,7,28,30,0,0,0,0,24,5,11,17,22,0,0,0,0,0,0,0,0,0,0,0,0,0,0,0,0,0,0,0,0],"split_type":[0,0,0,0,0,0,0,0,0,0,0,0,0,0,0,0,0,0,0,0,0,0,0,0,0,0,0,0,0,0,0,0,0,0,0,0,0,0,0,0,0,0,0,0,0,0,0,0,0],"sum_hessian":[9.721317E3,5.1722817E3,4.549035E3,4.5437646E3,6.2851733E2,7.4697974E2,3.8020554E3,4.0053823E3,5.3838226E2,5.3980273E2,8.871458E1,2.3350504E2,5.134747E2,3.708832E1,3.764967E3,1.0055086E2,3.9048313E3,3.2244635E2,2.1593593E2,4.9752213E2,4.2280647E1,6.862459E1,2.0089987E1,1.0719853E2,1.263065E2,6.567205E1,4.4780264E2,5.277665E2,3.2372007E3,3.1475153E1,6.907571E1,1.149007E2,3.7899307E3,2.9702014E2,2.5426195E1,1.5884096E2,5.7094975E1,4.1846292E2,7.90592E1,5.563992E1,7.066659E1,4.1398994E1,2.4273054E1,8.0175964E1,3.6762668E2,3.7755356E1,4.900111E2,6.00528E2,2.6366726E3],"tree_param":{"num_deleted":"0","num_feature":"33","num_nodes":"49","size_leaf_vector":"1"}},{"base_weights":[-1.4111031E-2,-1.0021516E0,1.0235094E0,7.752422E-1,-1.223945E0,4.1366616E-1,1.1911712E0,1.0586818E0,1.8127027E-1,-6.105282E-1,-6.312935E-2,-9.224766E-1,8.6988705E-1,3.5850602E-1,1.2056363E0,1.3307464E-2,1.1126926E0,-6.9640905E-2,8.232714E-1,-6.3472636E-2,9.4566655E-1,5.232067E-1,-1.4647521E0,1.0349215E0,-4.555282E-2,6.1474808E-2,-6.2145386E-3,1.0433457E0,1.2359469E0,5.912554E-2,1.8300321E-2,6.7447975E-2,-1.2858796E-3,1.879271E-2,9.466853E-2,-6.4377256E-2,6.674311E-2,-6.6867895E-2,-9.213316E-2,3.328206E-2,6.239434E-2,-4.594178E-2,6.3541666E-2,5.9730094E-2,3.082103E-2,6.2344726E-2,5.734078E-2],"categories":[],"categories_nodes":[],"categories_segments":[],"categories_sizes":[],"default_left":[0,0,0,0,0,0,0,0,0,0,0,0,0,0,0,0,0,0,0,0,0,0,0,0,0,0,0,0,0,0,0,0,0,0,0,0,0,0,0,0,0,0,0,0,0,0,0],"id":18,"left_children":[1,3,5,7,9,11,13,15,17,19,-1,21,23,25,27,-1,29,-1,31,-1,33,35,37,39,41,-1,-1,43,45,-1,-1,-1,-1,-1,-1,-1,-1,-1,-1,-1,-1,-1,-1,-1,-1,-1,-1],"loss_changes":[9.474506E3,1.8671001E3,4.604048E2,8.8328186E1,9.899902E1,5.942672E2,4.2146484E1,1.4931213E1,1.7401364E2,2.5895966E2,0E0,1.9541835E2,1.09772156E2,2.6134842E1,1.5801758E1,0E0,1.6912811E1,0E0,5.4542618E1,0E0,3.9977043E1,1.0234416E2,6.2413635E0,4.7565613E1,1.2979507E2,0E0,0E0,3.498578E1,1.4213867E0,0E0,0E0,0E0,0E0,0E0,0E0,0E0,0E0,0E0,0E0,0E0,0E0,0E0,0E0,0E0,0E0,0E0,0E0],"parents":[2147483647,0,0,1,1,2,2,3,3,4,4,5,5,6,6,7,7,8,8,9,9,11,11,12,12,13,13,14,14,16,16,18,18,20,20,21,21,22,22,23,23,24,24,27,27,28,28],"right_children":[2,4,6,8,10,12,14,16,18,20,-1,22,24,26,28,-1,30,-1,32,-1,34,36,38,40,42,-1,-1,44,46,-1,-1,-1,-1,-1,-1,-1,-1,-1,-1,-1,-1,-1,-1,-1,-1,-1,-1],"split_conditions":[7.13225E1,1.4968147E0,1.425525E2,9.7044873E-1,3.414E1,9.0571E2,-1.7073E3,1.19375E3,6.11593E3,4.56125E1,-6.312935E-2,-1.57348E3,6.84275E1,2.1598466E-1,2.398475E2,1.3307464E-2,6.0914E2,-6.9640905E-2,3.71748E3,-6.3472636E-2,9.659258E-1,1.095075E2,9.400589E-1,1.3921357E4,1.095075E2,6.1474808E-2,-6.2145386E-3,2.647684E0,2.2625872E1,5.912554E-2,1.8300321E-2,6.7447975E-2,-1.2858796E-3,1.879271E-2,9.466853E-2,-6.4377256E-2,6.674311E-2,-6.6867895E-2,-9.213316E-2,3.328206E-2,6.239434E-2,-4.594178E-2,6.3541666E-2,5.9730094E-2,3.082103E-2,6.2344726E-2,5.734078E-2],"split_indices":[22,16,22,16,5,8,8,3,1,22,0,21,23,14,22,0,5,0,3,0,26,23,15,11,23,0,0,16,16,0,0,0,0,0,0,0,0,0,0,0,0,0,0,0,0,0,0],"split_type":[0,0,0,0,0,0,0,0,0,0,0,0,0,0,0,0,0,0,0,0,0,0,0,0,0,0,0,0,0,0,0,0,0,0,0,0,0,0,0,0,0,0,0,0,0,0,0],"sum_hessian":[9.239518E3,4.7328486E3,4.5066685E3,5.2479407E2,4.2080547E3,9.725693E2,3.534099E3,3.5473462E2,1.7005945E2,2.5037065E2,3.957684E3,2.4729367E2,7.252756E2,6.078677E1,3.4733125E3,2.3010826E1,3.317238E2,4.8927418E1,1.2113203E2,1.7602315E2,7.434751E1,6.746636E1,1.798273E2,6.143846E2,1.1089103E2,2.1126633E1,3.9660137E1,5.521872E2,2.9211252E3,3.0282477E2,2.889902E1,7.444643E1,4.6685604E1,4.7302944E1,2.7044569E1,2.0699894E1,4.676647E1,1.3788496E2,4.1942337E1,2.2622964E2,3.881549E2,6.684708E1,4.4043953E1,4.0640344E2,1.4578372E2,2.590017E3,3.311081E2],"tree_param":{"num_deleted":"0","num_feature":"33","num_nodes":"47","size_leaf_vector":"1"}},{"base_weights":[3.1965494E-2,9.399353E-1,-9.459645E-1,5.442689E-1,1.1461642E0,8.233764E-1,-1.0798331E0,1.1651664E0,2.6439223E-1,-1.4639244E-3,1.1586729E0,-6.303114E-2,1.1946249E0,-5.732727E-1,-1.1962453E0,2.7428612E-1,1.2805989E0,7.0603716E-1,-6.426574E-1,1.1890455E0,8.9483684E-1,6.2008735E-2,3.1791825E-2,1.994244E-1,-1.1614044E0,-1.2290967E0,-4.9301464E-2,6.1629333E-2,-1.229282E-2,9.365872E-2,6.194821E-2,3.854639E-2,-7.770953E-2,-7.1202144E-2,2.1888057E-2,5.9657957E-2,3.0228345E-2,5.520931E-2,2.6184196E-2,-2.933085E-2,6.2299263E-2,4.6733383E-2,-6.3288026E-2,-6.211933E-2,-2.5071595E-2,-6.2724285E-2,6.075532E-2],"categories":[],"categories_nodes":[],"categories_segments":[],"categories_sizes":[],"default_left":[0,0,0,0,0,0,0,0,0,0,0,0,0,0,0,0,0,0,0,0,0,0,0,0,0,0,0,0,0,0,0,0,0,0,0,0,0,0,0,0,0,0,0,0,0,0,0],"id":19,"left_children":[1,3,5,7,9,11,13,15,17,-1,19,-1,21,23,25,27,29,31,33,35,37,-1,-1,39,41,43,45,-1,-1,-1,-1,-1,-1,-1,-1,-1,-1,-1,-1,-1,-1,-1,-1,-1,-1,-1,-1],"loss_changes":[8.140086E3,3.8727295E2,1.0463176E3,2.8306595E2,4.5967773E1,2.4213708E2,2.4130908E2,5.1722656E1,4.5125085E2,0E0,2.3707031E1,0E0,5.9438477E0,3.4959247E2,1.25632324E2,2.989023E1,8.732544E0,1.1226941E2,3.121609E2,5.936035E0,2.4531555E1,0E0,0E0,2.74753E2,9.669672E1,3.0739258E1,1.446599E2,0E0,0E0,0E0,0E0,0E0,0E0,0E0,0E0,0E0,0E0,0E0,0E0,0E0,0E0,0E0,0E0,0E0,0E0,0E0,0E0],"parents":[2147483647,0,0,1,1,2,2,3,3,4,4,5,5,6,6,7,7,8,8,10,10,12,12,13,13,14,14,15,15,16,16,17,17,18,18,19,19,20,20,23,23,24,24,25,25,26,26],"right_children":[2,4,6,8,10,12,14,16,18,-1,20,-1,22,24,26,28,30,32,34,36,38,-1,-1,40,42,44,46,-1,-1,-1,-1,-1,-1,-1,-1,-1,-1,-1,-1,-1,-1,-1,-1,-1,-1,-1,-1],"split_conditions":[4.8709E3,2.3108242E4,2.1832356E-1,2.2970238E-1,-1.60987E3,8.622E1,4.2149687E0,7.13225E1,4.774398E0,-1.4639244E-3,2.3695E3,-6.303114E-2,5.9834E4,5.729738E-1,2.307902E4,3.7804E4,7.27675E1,-2.398E2,5.9298E2,4.64743E3,4.4767985E-1,6.2008735E-2,3.1791825E-2,6.95959E-1,9.7044873E-1,6.91999E4,1.672495E4,6.1629333E-2,-1.229282E-2,9.365872E-2,6.194821E-2,3.854639E-2,-7.770953E-2,-7.1202144E-2,2.1888057E-2,5.9657957E-2,3.0228345E-2,5.520931E-2,2.6184196E-2,-2.933085E-2,6.2299263E-2,4.6733383E-2,-6.3288026E-2,-6.211933E-2,-2.5071595E-2,-6.2724285E-2,6.075532E-2],"split_indices":[9,11,14,14,8,23,16,23,16,0,9,0,24,13,1,0,23,19,5,4,13,0,0,7,16,0,9,0,0,0,0,0,0,0,0,0,0,0,0,0,0,0,0,0,0,0,0],"split_type":[0,0,0,0,0,0,0,0,0,0,0,0,0,0,0,0,0,0,0,0,0,0,0,0,0,0,0,0,0,0,0,0,0,0,0,0,0,0,0,0,0,0,0,0,0,0,0],"sum_hessian":[9.165475E3,4.7527607E3,4.412714E3,1.6296973E3,3.1230635E3,3.1002087E2,4.1026934E3,5.0537527E2,1.124322E3,3.2870743E1,3.0901929E3,4.6514828E1,2.6350604E2,7.677592E2,3.3349338E3,5.8358055E1,4.470172E2,7.562994E2,3.680226E2,2.7680322E3,3.2216064E2,2.4251778E2,2.0988266E1,3.3210074E2,4.356585E2,3.2420034E3,9.293058E1,2.0049513E1,3.8308544E1,2.6457975E1,4.2055923E2,7.358327E2,2.0466665E1,2.1338168E2,1.5464095E2,2.7476533E3,2.0378876E1,2.0471552E2,1.1744513E2,1.8990678E2,1.4219395E2,2.0283897E1,4.153746E2,3.1831592E3,5.884423E1,4.75836E1,4.534698E1],"tree_param":{"num_deleted":"0","num_feature":"33","num_nodes":"47","size_leaf_vector":"1"}},{"base_weights":[2.5616791E-2,9.154521E-1,-9.588896E-1,-1.4797755E-1,9.987108E-1,7.9861087E-1,-1.0861146E0,1.1796147E0,-1.1451138E0,7.506008E-1,1.1564254E0,-6.1171938E-2,1.1125113E0,-5.9480333E-1,-1.1976839E0,4.6144582E-2,6.276017E-2,-6.9644116E-2,4.5703147E-2,2.3176692E-1,9.4458663E-1,5.564694E-1,1.1708722E0,2.758487E-2,5.978463E-2,2.0770511E-1,-6.2469583E-2,-1.2120099E0,1.9557145E-3,3.5515625E-2,-5.388127E-2,5.1270485E-2,1.2397224E-2,-9.5488895E-3,5.8412787E-2,5.874722E-2,3.2270305E-2,-6.896206E-2,3.4091573E-2,-6.1457902E-2,-2.0056795E-2],"categories":[],"categories_nodes":[],"categories_segments":[],"categories_sizes":[],"default_left":[0,0,0,0,0,0,0,0,0,0,0,0,0,0,0,0,0,0,0,0,0,0,0,0,0,0,0,0,0,0,0,0,0,0,0,0,0,0,0,0,0],"id":20,"left_children":[1,3,5,7,9,11,13,15,17,19,21,-1,23,25,27,-1,-1,-1,-1,29,31,33,35,-1,-1,37,-1,39,-1,-1,-1,-1,-1,-1,-1,-1,-1,-1,-1,-1,-1],"loss_changes":[7.7364375E3,4.1084277E2,9.383071E2,4.4834967E2,1.6746729E2,1.8135872E2,2.1361182E2,1.6616974E0,9.991487E1,1.6833118E2,2.2128174E1,0E0,1.0816101E1,3.814052E2,5.6486816E1,0E0,0E0,0E0,0E0,2.8716675E2,6.835913E1,2.9353642E1,4.731201E0,0E0,0E0,2.4683575E2,0E0,4.329297E1,0E0,0E0,0E0,0E0,0E0,0E0,0E0,0E0,0E0,0E0,0E0,0E0,0E0],"parents":[2147483647,0,0,1,1,2,2,3,3,4,4,5,5,6,6,7,7,8,8,9,9,10,10,12,12,13,13,14,14,19,19,20,20,21,21,22,22,25,25,27,27],"right_children":[2,4,6,8,10,12,14,16,18,20,22,-1,24,26,28,-1,-1,-1,-1,30,32,34,36,-1,-1,38,-1,40,-1,-1,-1,-1,-1,-1,-1,-1,-1,-1,-1,-1,-1],"split_conditions":[4.8709E3,9.2381024E-1,2.1832356E-1,2.2100997E-1,2.9478328E4,6.1445E1,4.2149687E0,9.047E2,2.6117E3,3.41325E1,-1.16765E3,-6.1171938E-2,1.23415E2,5.729738E-1,6.383854E4,4.6144582E-2,6.276017E-2,-6.9644116E-2,4.5703147E-2,1.9061933E0,1.35291E3,7.34858E4,1.04665E4,2.758487E-2,5.978463E-2,2.6912117E-1,-6.2469583E-2,2.10389E3,1.9557145E-3,3.5515625E-2,-5.388127E-2,5.1270485E-2,1.2397224E-2,-9.5488895E-3,5.8412787E-2,5.874722E-2,3.2270305E-2,-6.896206E-2,3.4091573E-2,-6.1457902E-2,-2.0056795E-2],"split_indices":[9,15,14,14,11,23,16,19,19,23,8,0,23,13,6,0,0,0,0,16,21,0,1,0,0,14,0,5,0,0,0,0,0,0,0,0,0,0,0,0,0],"split_type":[0,0,0,0,0,0,0,0,0,0,0,0,0,0,0,0,0,0,0,0,0,0,0,0,0,0,0,0,0,0,0,0,0,0,0,0,0,0,0,0,0],"sum_hessian":[8.829059E3,4.637539E3,4.191519E3,3.3666592E2,4.3008735E3,2.825849E2,3.908934E3,1.4432625E2,1.9233968E2,1.6736755E3,2.6271978E3,3.758384E1,2.4500105E2,7.245597E2,3.1843743E3,3.5833534E1,1.0849271E2,1.7197101E2,2.0368668E1,4.5606912E2,1.2176064E3,6.2704212E1,2.5644937E3,3.2631275E1,2.1236978E2,3.25809E2,3.9875073E2,3.1479314E3,3.644287E1,3.3433627E2,1.2173286E2,1.0906046E3,1.2700182E2,2.8532541E1,3.417167E1,2.5435461E3,2.0947472E1,7.450951E1,2.5129947E2,3.0822332E3,6.5698296E1],"tree_param":{"num_deleted":"0","num_feature":"33","num_nodes":"41","size_leaf_vector":"1"}},{"base_weights":[2.7438808E-2,-9.6288675E-1,9.914408E-1,6.714695E-1,-1.158399E0,4.5894077E-1,1.1445409E0,8.455623E-1,-6.489127E-2,-6.7482203E-1,-1.1933174E0,-7.081551E-1,8.5284543E-1,-8.488345E-3,1.1592083E0,9.9911815E-1,-4.771411E-1,3.167035E-1,-6.493426E-2,-9.278402E-1,-6.070148E-2,-1.3826777E0,3.7546092E-1,1.02249E0,-7.539705E-1,9.909467E-1,1.1888369E0,-2.121148E-2,5.711254E-2,-1.0132866E-1,5.7893593E-2,-6.740567E-2,7.313012E-2,-6.26281E-2,7.4532315E-2,-6.366003E-2,-8.879206E-2,4.4706378E-2,-6.924623E-2,5.5613805E-2,9.294992E-3,6.79953E-2,-9.037171E-2,5.3582963E-2,-1.9858072E-2,5.9569467E-2,3.9563987E-2],"categories":[],"categories_nodes":[],"categories_segments":[],"categories_sizes":[],"default_left":[0,0,0,0,0,0,0,0,0,0,0,0,0,0,0,0,0,0,0,0,0,0,0,0,0,0,0,0,0,0,0,0,0,0,0,0,0,0,0,0,0,0,0,0,0,0,0],"id":21,"left_children":[1,3,5,7,9,11,13,15,-1,17,19,21,23,-1,25,27,29,31,-1,33,-1,35,37,39,41,43,45,-1,-1,-1,-1,-1,-1,-1,-1,-1,-1,-1,-1,-1,-1,-1,-1,-1,-1,-1,-1],"loss_changes":[8.1902954E3,1.3529939E3,3.5389453E2,1.5632854E2,6.3023438E1,4.4766992E2,6.527539E1,8.509375E1,0E0,1.5930501E2,1.8251465E1,1.8028189E2,1.9908545E2,0E0,1.5466309E1,7.659683E1,1.13841866E2,1.9275662E2,0E0,2.0549966E2,0E0,4.272705E0,8.810876E1,4.925403E1,1.5845454E2,5.7104614E1,1.9331055E0,0E0,0E0,0E0,0E0,0E0,0E0,0E0,0E0,0E0,0E0,0E0,0E0,0E0,0E0,0E0,0E0,0E0,0E0,0E0,0E0],"parents":[2147483647,0,0,1,1,2,2,3,3,4,4,5,5,6,6,7,7,9,9,10,10,11,11,12,12,14,14,15,15,16,16,17,17,19,19,21,21,22,22,23,23,24,24,25,25,26,26],"right_children":[2,4,6,8,10,12,14,16,-1,18,20,22,24,-1,26,28,30,32,-1,34,-1,36,38,40,42,44,46,-1,-1,-1,-1,-1,-1,-1,-1,-1,-1,-1,-1,-1,-1,-1,-1,-1,-1,-1,-1],"split_conditions":[7.13225E1,1.4968147E0,1.425525E2,4.8709E3,4.2933E3,9.0571E2,-1.7073E3,2.29E2,-6.489127E-2,4.4767985E-1,2.7799919E0,1.095075E2,6.84275E1,-8.488345E-3,2.398475E2,-5E-1,9.0237135E-1,4.198517E-1,-6.493426E-2,1.2818E3,-6.070148E-2,9.400589E-1,4.6959925E-1,6.26799E3,-4.276865E-1,5.9034336E-1,8.794178E-1,-2.121148E-2,5.711254E-2,-1.0132866E-1,5.7893593E-2,-6.740567E-2,7.313012E-2,-6.26281E-2,7.4532315E-2,-6.366003E-2,-8.879206E-2,4.4706378E-2,-6.924623E-2,5.5613805E-2,9.294992E-3,6.79953E-2,-9.037171E-2,5.3582963E-2,-1.9858072E-2,5.9569467E-2,3.9563987E-2],"split_indices":[22,16,22,9,9,8,8,30,0,13,16,23,23,0,22,28,13,13,0,20,0,15,13,2,17,13,7,0,0,0,0,0,0,0,0,0,0,0,0,0,0,0,0,0,0,0,0],"split_type":[0,0,0,0,0,0,0,0,0,0,0,0,0,0,0,0,0,0,0,0,0,0,0,0,0,0,0,0,0,0,0,0,0,0,0,0,0,0,0,0,0,0,0,0,0,0,0],"sum_hessian":[8.577139E3,4.230805E3,4.346333E3,4.517801E2,3.7790254E3,9.7146497E2,3.3748682E3,4.1560934E2,3.6170746E1,2.5587003E2,3.5231553E3,2.4493927E2,7.265257E2,3.713032E1,3.3377378E3,3.7259814E2,4.301118E1,9.900716E1,1.5686287E2,2.5829373E2,3.2648616E3,1.5079645E2,9.4142815E1,6.574744E2,6.905127E1,5.0489215E2,2.8328457E3,3.386565E1,3.387325E2,2.1960587E1,2.1050594E1,4.029222E1,5.8714935E1,2.2814374E2,3.0149982E1,1.21267654E2,2.9528797E1,7.309789E1,2.1044924E1,5.9345325E2,6.402118E1,2.286984E1,4.618143E1,4.773635E2,2.7528675E1,2.8127905E3,2.0055214E1],"tree_param":{"num_deleted":"0","num_feature":"33","num_nodes":"47","size_leaf_vector":"1"}},{"base_weights":[-3.0682545E-2,-9.284669E-1,1.0124714E0,6.778198E-1,-1.1502074E0,5.5056036E-1,1.1406416E0,8.0737716E-1,-6.2445726E-2,-7.372077E-1,-6.0283452E-2,7.934903E-1,-6.945684E-2,-2.1498688E-3,1.1546979E0,4.1598997E-1,1.102849E0,-1.0733974E0,1.0840882E0,9.037076E-1,-8.052024E-1,1.4586084E-2,1.163365E0,-9.527588E-2,3.3579674E-2,2.7116299E-2,5.7257243E-2,-6.403091E-2,2.7867166E-2,8.995985E-2,3.0916993E-2,5.1109392E-2,1.4118445E-2,2.8094312E-2,-9.503681E-2,5.441131E-2,5.9533086E-2],"categories":[],"categories_nodes":[],"categories_segments":[],"categories_sizes":[],"default_left":[0,0,0,0,0,0,0,0,0,0,0,0,0,0,0,0,0,0,0,0,0,0,0,0,0,0,0,0,0,0,0,0,0,0,0,0,0],"id":22,"left_children":[1,3,5,7,9,11,13,15,-1,17,-1,19,-1,-1,21,23,25,27,29,31,33,-1,35,-1,-1,-1,-1,-1,-1,-1,-1,-1,-1,-1,-1,-1,-1],"loss_changes":[7.4504556E3,1.5236587E3,2.1722778E2,1.3062776E2,8.517529E1,3.7864227E2,4.7958984E1,5.5877502E1,0E0,2.7511267E2,0E0,1.26303345E2,0E0,0E0,2.0946045E1,1.265838E2,5.9456177E0,1.2851425E2,2.227333E1,4.882672E1,7.0700455E1,0E0,4.482666E0,0E0,0E0,0E0,0E0,0E0,0E0,0E0,0E0,0E0,0E0,0E0,0E0,0E0,0E0],"parents":[2147483647,0,0,1,1,2,2,3,3,4,4,5,5,6,6,7,7,9,9,11,11,14,14,15,15,16,16,17,17,18,18,19,19,20,20,22,22],"right_children":[2,4,6,8,10,12,14,16,-1,18,-1,20,-1,-1,22,24,26,28,30,32,34,-1,36,-1,-1,-1,-1,-1,-1,-1,-1,-1,-1,-1,-1,-1,-1],"split_conditions":[8.0015E1,1.4968147E0,1.817825E2,5.3027E3,3.1773329E0,1.9815033E1,-1.7073E3,5.0115E1,-6.2445726E-2,3.948E2,-6.0283452E-2,6.443988E-1,-6.945684E-2,-2.1498688E-3,4.33322E4,8.642691E-2,2.30513E3,3.0250925E-1,1.45E1,5.77473E3,1.079743E-1,1.4586084E-2,3.800975E2,-9.527588E-2,3.3579674E-2,2.7116299E-2,5.7257243E-2,-6.403091E-2,2.7867166E-2,8.995985E-2,3.0916993E-2,5.1109392E-2,1.4118445E-2,2.8094312E-2,-9.503681E-2,5.441131E-2,5.9533086E-2],"split_indices":[22,16,22,9,16,16,8,22,0,20,0,13,0,0,0,12,8,14,5,2,7,0,22,0,0,0,0,0,0,0,0,0,0,0,0,0,0],"split_type":[0,0,0,0,0,0,0,0,0,0,0,0,0,0,0,0,0,0,0,0,0,0,0,0,0,0,0,0,0,0,0,0,0,0,0,0,0],"sum_hessian":[7.953402E3,4.2746016E3,3.6788005E3,5.1826154E2,3.7563398E3,8.0021313E2,2.8785874E3,4.8615268E2,3.210889E1,4.4640903E2,3.309931E3,7.116733E2,8.853988E1,3.3759415E1,2.8448281E3,2.1016814E2,2.7598453E2,3.771941E2,6.921493E1,6.6618005E2,4.5493187E1,2.8631823E1,2.8161963E3,2.0204714E1,1.8996342E2,2.0333822E1,2.5565073E2,3.348579E2,4.233619E1,2.6170225E1,4.3044704E1,5.589512E2,1.0722888E2,2.0455011E1,2.5038176E1,7.6134283E2,2.0548533E3],"tree_param":{"num_deleted":"0","num_feature":"33","num_nodes":"37","size_leaf_vector":"1"}},{"base_weights":[2.9048098E-2,8.623184E-1,-8.6325556E-1,5.798835E-1,1.1225872E0,-1.0177524E0,1.1289008E0,7.098931E-1,-3.815136E-1,1.1334318E0,2.3810044E-3,-1.069102E0,2.604834E-1,5.9296735E-2,3.5352495E-2,2.89309E-1,9.2196804E-1,-1.5295652E0,2.2511113E-1,3.035836E-2,1.1417056E0,-4.0709087E-1,-1.1254811E0,8.038053E-1,-6.2581584E-2,-6.939783E-2,3.3329573E-2,-2.3189833E-2,5.057881E-2,-6.411936E-2,-8.748854E-2,-6.2094893E-2,3.3022523E-2,4.2074494E-2,5.742407E-2,3.091625E-2,-6.0633983E-2,-9.079862E-3,-5.795471E-2,6.3104205E-2,1.2066273E-4],"categories":[],"categories_nodes":[],"categories_segments":[],"categories_sizes":[],"default_left":[0,0,0,0,0,0,0,0,0,0,0,0,0,0,0,0,0,0,0,0,0,0,0,0,0,0,0,0,0,0,0,0,0,0,0,0,0,0,0,0,0],"id":23,"left_children":[1,3,5,7,9,11,13,15,17,19,-1,21,23,-1,-1,25,27,29,31,-1,33,35,37,39,-1,-1,-1,-1,-1,-1,-1,-1,-1,-1,-1,-1,-1,-1,-1,-1,-1],"loss_changes":[5.973546E3,3.0473657E2,1.1952224E3,2.4955762E2,2.5138184E1,2.366311E2,5.8908386E0,1.5646814E2,1.6625662E2,8.62207E0,0E0,1.2875757E2,1.1592169E2,0E0,0E0,3.7459207E2,1.4547113E2,2.2460022E0,1.0092255E2,0E0,3.3154297E0,2.264858E2,1.0099097E2,3.8011948E1,0E0,0E0,0E0,0E0,0E0,0E0,0E0,0E0,0E0,0E0,0E0,0E0,0E0,0E0,0E0,0E0,0E0],"parents":[2147483647,0,0,1,1,2,2,3,3,4,4,5,5,6,6,7,7,8,8,9,9,11,11,12,12,15,15,16,16,17,17,18,18,20,20,21,21,22,22,23,23],"right_children":[2,4,6,8,10,12,14,16,18,20,-1,22,24,-1,-1,26,28,30,32,-1,34,36,38,40,-1,-1,-1,-1,-1,-1,-1,-1,-1,-1,-1,-1,-1,-1,-1,-1,-1],"split_conditions":[4.8709E3,5.487555E-1,3.800975E2,1.35291E3,9.09012E3,6.91999E4,4.7E1,5.41637E4,2.1816391E-1,-2.2944913E0,2.3810044E-3,-3.94871E3,-2.902E3,5.9296735E-2,3.5352495E-2,9.968086E-1,2.53075E1,7.419E1,3.0166E2,3.035836E-2,3.0702271E4,7.13E3,1.45E1,1.9231373E-1,-6.2581584E-2,-6.939783E-2,3.3329573E-2,-2.3189833E-2,5.057881E-2,-6.411936E-2,-8.748854E-2,-6.2094893E-2,3.3022523E-2,4.2074494E-2,5.742407E-2,3.091625E-2,-6.0633983E-2,-9.079862E-3,-5.795471E-2,6.3104205E-2,1.2066273E-4],"split_indices":[9,10,23,21,1,0,30,0,7,17,0,21,20,0,0,17,23,23,2,0,11,9,5,12,0,0,0,0,0,0,0,0,0,0,0,0,0,0,0,0,0],"split_type":[0,0,0,0,0,0,0,0,0,0,0,0,0,0,0,0,0,0,0,0,0,0,0,0,0,0,0,0,0,0,0,0,0,0,0,0,0,0,0,0,0],"sum_hessian":[8.0320327E3,4.1534253E3,3.8786077E3,1.9934398E3,2.1599854E3,3.599914E3,2.786936E2,1.7562095E3,2.3723036E2,2.1383584E3,2.1626816E1,3.46104E3,1.3887402E2,2.4390639E2,3.47872E1,5.8949506E2,1.1667145E3,8.148903E1,1.5574133E2,3.4250046E1,2.1041084E3,2.722671E2,3.188773E3,1.0250949E2,3.636452E1,1.0775872E2,4.8173636E2,7.060792E1,1.0961066E3,4.160807E1,3.9880955E1,3.5216354E1,1.2052498E2,4.920347E1,2.054905E3,1.1989187E2,1.5237521E2,1.0987209E2,3.078901E3,6.484996E1,3.7659534E1],"tree_param":{"num_deleted":"0","num_feature":"33","num_nodes":"41","size_leaf_vector":"1"}},{"base_weights":[4.3688312E-2,-8.9639205E-1,9.5303243E-1,6.206862E-1,-1.0963619E0,5.4280514E-1,1.1211205E0,7.4601024E-1,-6.0210634E-2,-4.3450066E-1,-1.1603295E0,8.650389E-1,-4.2594025E-1,1.129419E0,2.1422377E-2,-2.4767652E-2,8.5567635E-1,-5.944066E-2,6.735077E-1,-4.315057E-1,-5.9283365E-2,9.96265E-1,-1.408291E-1,1.0620786E0,-9.158557E-1,7.056253E-1,1.1374301E0,-1.027995E-2,4.706989E-2,6.343394E-2,-6.201194E-2,-6.0383696E-2,5.8173787E-2,1.8365314E-2,5.4196294E-2,6.119336E-2,-8.6099036E-2,6.749514E-2,2.7617741E-2,2.1135537E-2,-6.7868106E-2,6.975321E-2,6.842775E-3,5.2402206E-2,5.8363825E-2],"categories":[],"categories_nodes":[],"categories_segments":[],"categories_sizes":[],"default_left":[0,0,0,0,0,0,0,0,0,0,0,0,0,0,0,0,0,0,0,0,0,0,0,0,0,0,0,0,0,0,0,0,0,0,0,0,0,0,0,0,0,0,0,0,0],"id":24,"left_children":[1,3,5,7,9,11,13,15,-1,17,19,21,23,25,-1,-1,27,-1,29,31,-1,33,35,37,39,41,43,-1,-1,-1,-1,-1,-1,-1,-1,-1,-1,-1,-1,-1,-1,-1,-1,-1,-1],"loss_changes":[6.713052E3,1.1720491E3,2.7463306E2,1.0388776E2,1.4394629E2,3.631375E2,1.5786377E1,5.7872665E1,0E0,2.5344824E2,5.6931152E1,1.1529071E2,2.1292249E2,8.691406E0,0E0,0E0,3.5501404E1,0E0,1.4175867E2,1.3272891E2,0E0,4.2156555E1,2.2123698E2,9.887436E0,1.3015494E2,2.1186169E1,6.093994E0,0E0,0E0,0E0,0E0,0E0,0E0,0E0,0E0,0E0,0E0,0E0,0E0,0E0,0E0,0E0,0E0,0E0,0E0],"parents":[2147483647,0,0,1,1,2,2,3,3,4,4,5,5,6,6,7,7,9,9,10,10,11,11,12,12,13,13,16,16,18,18,19,19,21,21,22,22,23,23,24,24,25,25,26,26],"right_children":[2,4,6,8,10,12,14,16,-1,18,20,22,24,26,-1,-1,28,-1,30,32,-1,34,36,38,40,42,44,-1,-1,-1,-1,-1,-1,-1,-1,-1,-1,-1,-1,-1,-1,-1,-1,-1,-1],"split_conditions":[7.13225E1,1.4968147E0,1.817825E2,5.3027E3,5.09E1,4.7303433E0,3.00872E3,1.28869E3,-6.0210634E-2,3.82175E1,-4.89181E3,6.26799E3,5.7E1,4.34214E4,2.1422377E-2,-2.4767652E-2,-5E-1,-5.944066E-2,1.9E2,2.9138178E-1,-5.9283365E-2,3.0166E2,7.208162E-1,1.3788168E-1,-3.4217E3,2.831946E-1,3.800975E2,-1.027995E-2,4.706989E-2,6.343394E-2,-6.201194E-2,-6.0383696E-2,5.8173787E-2,1.8365314E-2,5.4196294E-2,6.119336E-2,-8.6099036E-2,6.749514E-2,2.7617741E-2,2.1135537E-2,-6.7868106E-2,6.975321E-2,6.842775E-3,5.2402206E-2,5.8363825E-2],"split_indices":[22,16,22,9,5,16,21,3,0,22,21,2,30,0,0,0,28,0,30,14,0,2,16,7,20,7,22,0,0,0,0,0,0,0,0,0,0,0,0,0,0,0,0,0,0],"split_type":[0,0,0,0,0,0,0,0,0,0,0,0,0,0,0,0,0,0,0,0,0,0,0,0,0,0,0,0,0,0,0,0,0,0,0,0,0,0,0,0,0,0,0,0,0],"sum_hessian":[7.85084E3,3.8601887E3,3.990651E3,4.4931796E2,3.4108708E3,1.1611163E3,2.8295344E3,4.2099738E2,2.832059E1,3.0128787E2,3.109583E3,8.7137726E2,2.897391E2,2.7954136E3,3.4120964E1,3.3887836E1,3.8710953E2,1.7921115E2,1.2207672E2,1.0507963E2,3.0045034E3,7.708246E2,1.0055267E2,7.147633E1,2.1826277E2,5.3515038E1,2.7418984E3,2.88263E1,3.5828323E2,9.337451E1,2.8702204E1,7.084638E1,3.423325E1,9.492637E1,6.758982E2,5.409183E1,4.6460842E1,4.462805E1,2.6848286E1,5.414565E1,1.6411711E2,2.3534603E1,2.9980433E1,6.9539594E2,2.0465026E3],"tree_param":{"num_deleted":"0","num_feature":"33","num_nodes":"45","size_leaf_vector":"1"}},{"base_weights":[1.426776E-2,-9.340465E-1,9.3224823E-1,-1.0897024E0,4.5912775E-1,4.6494967E-1,1.1113318E0,-5.8841247E-2,-5.78494E-1,-7.774188E-2,6.22632E-1,-5.972452E-1,8.088515E-1,1.1254977E-2,1.1207582E0,5.081399E-1,-1.0270671E0,7.452684E-1,-5.9677254E-2,8.8722056E-1,-9.38135E-1,9.892477E-1,-9.761142E-2,7.5707144E-1,1.1275369E0,6.0759623E-2,-6.0908046E-2,4.583094E-2,-5.958697E-2,1.722188E-2,5.161455E-2,6.160004E-2,2.8514668E-2,1.6897043E-2,-6.921502E-2,5.3050276E-2,2.3660762E-2,-8.2671486E-2,5.1978834E-2,6.803125E-2,1.1814064E-2,5.2806426E-2,5.7724115E-2],"categories":[],"categories_nodes":[],"categories_segments":[],"categories_sizes":[],"default_left":[0,0,0,0,0,0,0,0,0,0,0,0,0,0,0,0,0,0,0,0,0,0,0,0,0,0,0,0,0,0,0,0,0,0,0,0,0,0,0,0,0,0,0],"id":25,"left_children":[1,3,5,7,9,11,13,-1,15,-1,17,19,21,-1,23,25,27,29,-1,31,33,35,37,39,41,-1,-1,-1,-1,-1,-1,-1,-1,-1,-1,-1,-1,-1,-1,-1,-1,-1,-1],"loss_changes":[6.435189E3,7.889983E2,3.138213E2,1.4499902E2,1.21529396E2,3.8125836E2,2.2427246E1,0E0,2.3363438E2,0E0,7.6471634E1,1.3013647E2,1.2893066E2,0E0,5.7678223E0,1.7285934E2,1.0954407E2,3.6286606E1,0E0,4.5678673E0,1.1905501E2,2.383313E1,2.346947E2,1.608337E1,3.850586E0,0E0,0E0,0E0,0E0,0E0,0E0,0E0,0E0,0E0,0E0,0E0,0E0,0E0,0E0,0E0,0E0,0E0,0E0],"parents":[2147483647,0,0,1,1,2,2,3,3,4,4,5,5,6,6,8,8,10,10,11,11,12,12,14,14,15,15,16,16,17,17,19,19,20,20,21,21,22,22,23,23,24,24],"right_children":[2,4,6,8,10,12,14,-1,16,-1,18,20,22,-1,24,26,28,30,-1,32,34,36,38,40,42,-1,-1,-1,-1,-1,-1,-1,-1,-1,-1,-1,-1,-1,-1,-1,-1,-1,-1],"split_conditions":[7.13225E1,9.9929273E-1,1.817825E2,4.56125E1,1.89663E3,8.27309E2,-2.01401E3,-5.8841247E-2,1.74354E3,-7.774188E-2,5.3027E3,5.5E1,5.1977E3,1.1254977E-2,4.33322E4,1.9E2,2.02075E1,8.660254E-1,-5.9677254E-2,1.3030027E-1,-3.4217E3,0E0,6.383854E4,-9.659258E-1,3.800975E2,6.0759623E-2,-6.0908046E-2,4.583094E-2,-5.958697E-2,1.722188E-2,5.161455E-2,6.160004E-2,2.8514668E-2,1.6897043E-2,-6.921502E-2,5.3050276E-2,2.3660762E-2,-8.2671486E-2,5.1978834E-2,6.803125E-2,1.1814064E-2,5.2806426E-2,5.7724115E-2],"split_indices":[22,15,22,22,8,8,8,0,3,0,9,30,2,0,0,30,23,27,0,7,20,25,6,25,22,0,0,0,0,0,0,0,0,0,0,0,0,0,0,0,0,0,0],"split_type":[0,0,0,0,0,0,0,0,0,0,0,0,0,0,0,0,0,0,0,0,0,0,0,0,0,0,0,0,0,0,0,0,0,0,0,0,0,0,0,0,0,0,0],"sum_hessian":[7.390231E3,3.6350483E3,3.7551829E3,3.2699255E3,3.6512283E2,1.0413896E3,2.7137932E3,2.792682E3,4.7724353E2,2.6777784E1,3.3834503E2,2.5452193E2,7.868677E2,2.8823368E1,2.6849697E3,1.3940727E2,3.3783627E2,3.1749594E2,2.0849096E1,4.7233315E1,2.072886E2,6.561877E2,1.3067998E2,5.1190796E1,2.633779E3,9.911014E1,4.029713E1,2.6029888E1,3.118064E2,1.3340045E2,1.8409549E2,2.123967E1,2.5993645E1,5.3763218E1,1.5352539E2,5.751527E2,8.103497E1,5.4991135E1,7.568884E1,2.2964352E1,2.8226444E1,7.325719E2,1.9012072E3],"tree_param":{"num_deleted":"0","num_feature":"33","num_nodes":"43","size_leaf_vector":"1"}},{"base_weights":[2.0226264E-2,-8.876036E-1,9.193013E-1,6.153995E-1,-1.09433E0,4.2126802E-1,1.1009024E0,8.79744E-1,1.1112109E-1,-6.0635704E-1,-1.1381171E0,-5.582996E-1,7.6480865E-1,3.9827657E-1,1.11418E0,9.847204E-1,-5.2980925E-3,-6.809019E-2,7.3117244E-1,-5.857224E-2,5.242293E-1,-3.7477574E-1,-5.8280945E-2,-1.2973616E0,3.9977726E-1,9.8574543E-1,1.6832037E-1,4.602673E-5,4.6929356E-2,1.0264454E0,5.7235576E-2,2.9100874E-2,5.7553023E-2,1.5553501E-2,6.583982E-2,6.8052515E-2,-6.2476873E-2,5.8867104E-2,-5.8962476E-2,-6.0158648E-2,-7.892079E-2,5.4648805E-2,-3.0395735E-2,5.8279183E-2,3.652769E-2,-5.1446106E-2,5.5074733E-2,2.7520645E-2,5.6198645E-2],"categories":[],"categories_nodes":[],"categories_segments":[],"categories_sizes":[],"default_left":[0,0,0,0,0,0,0,0,0,0,0,0,0,0,0,0,0,0,0,0,0,0,0,0,0,0,0,0,0,0,0,0,0,0,0,0,0,0,0,0,0,0,0,0,0,0,0,0,0],"id":26,"left_children":[1,3,5,7,9,11,13,15,17,19,21,23,25,27,29,31,-1,-1,33,-1,35,37,-1,39,41,43,45,-1,-1,47,-1,-1,-1,-1,-1,-1,-1,-1,-1,-1,-1,-1,-1,-1,-1,-1,-1,-1,-1],"loss_changes":[5.8138354E3,1.1019092E3,3.2320947E2,5.7113556E1,6.589014E1,3.2277216E2,2.4015625E1,2.922586E1,1.3684619E2,1.6591095E2,5.956958E1,1.7703333E2,9.33479E1,1.0773138E1,5.7165527E0,1.6374054E1,0E0,0E0,2.5504364E1,0E0,1.307077E2,1.2734308E2,0E0,1.8325043E0,7.702974E1,2.2902435E1,2.1675531E2,0E0,0E0,3.0665283E1,0E0,0E0,0E0,0E0,0E0,0E0,0E0,0E0,0E0,0E0,0E0,0E0,0E0,0E0,0E0,0E0,0E0,0E0,0E0],"parents":[2147483647,0,0,1,1,2,2,3,3,4,4,5,5,6,6,7,7,8,8,9,9,10,10,11,11,12,12,13,13,14,14,15,15,18,18,20,20,21,21,23,23,24,24,25,25,26,26,29,29],"right_children":[2,4,6,8,10,12,14,16,18,20,22,24,26,28,30,32,-1,-1,34,-1,36,38,-1,40,42,44,46,-1,-1,48,-1,-1,-1,-1,-1,-1,-1,-1,-1,-1,-1,-1,-1,-1,-1,-1,-1,-1,-1],"split_conditions":[7.13225E1,1.4968147E0,1.817825E2,9.7044873E-1,5.09E1,8.27309E2,-1.67189E3,3.8393E2,6.11593E3,9.4701403E-1,-4.89181E3,1.23415E2,5.691E1,2.1014E3,3.800975E2,-4.9334E3,-5.2980925E-3,-6.809019E-2,1.0861708E0,-5.857224E-2,1.52E2,-7.0710677E-1,-5.8280945E-2,9.379048E-1,2.4163002E-1,1.0688806E0,6.383854E4,4.602673E-5,4.6929356E-2,2.8452E2,5.7235576E-2,2.9100874E-2,5.7553023E-2,1.5553501E-2,6.583982E-2,6.8052515E-2,-6.2476873E-2,5.8867104E-2,-5.8962476E-2,-6.0158648E-2,-7.892079E-2,5.4648805E-2,-3.0395735E-2,5.8279183E-2,3.652769E-2,-5.1446106E-2,5.5074733E-2,2.7520645E-2,5.6198645E-2],"split_indices":[22,16,22,16,5,8,8,5,1,15,21,22,23,19,22,20,0,0,7,0,30,25,0,15,14,16,6,0,0,8,0,0,0,0,0,0,0,0,0,0,0,0,0,0,0,0,0,0,0],"split_type":[0,0,0,0,0,0,0,0,0,0,0,0,0,0,0,0,0,0,0,0,0,0,0,0,0,0,0,0,0,0,0,0,0,0,0,0,0,0,0,0,0,0,0,0,0,0,0,0,0],"sum_hessian":[7.1209907E3,3.5432502E3,3.5777402E3,4.2818167E2,3.1150686E3,9.568744E2,2.620866E3,2.8043307E2,1.477486E2,2.577289E2,2.8573398E3,2.4828694E2,7.0858746E2,4.9182674E1,2.5716833E3,2.5344275E2,2.6990324E1,4.3416626E1,1.0433197E2,1.71816E2,8.591291E1,9.987366E1,2.757466E3,1.399642E2,1.0832274E2,5.1659155E2,1.919959E2,2.8917686E1,2.0264988E1,6.728422E2,1.8988411E3,7.540034E1,1.7804242E2,6.1643005E1,4.268897E1,5.8531715E1,2.7381191E1,3.393582E1,6.5937836E1,1.08787544E2,3.1176657E1,6.412561E1,4.4197124E1,3.0094357E2,2.1564796E2,8.4053925E1,1.0794197E2,1.1553905E2,5.5730316E2],"tree_param":{"num_deleted":"0","num_feature":"33","num_nodes":"49","size_leaf_vector":"1"}},{"base_weights":[4.0596467E-2,-8.166074E-1,9.617224E-1,-1.0399176E0,5.3142405E-1,5.9193254E-1,1.0831835E0,-3.638456E-2,-1.0793031E0,-7.4339345E-2,6.7964506E-1,-6.288749E-2,7.4023247E-1,3.6884797E-1,1.0971882E0,-5.9101194E-2,1.0873972E0,-4.7153732E-1,-1.1427176E0,8.8864493E-1,-6.2771255E-1,9.006361E-1,2.5185007E-1,4.2151786E-2,1.0703787E-3,6.9494283E-1,1.1077491E0,2.4356795E-2,8.98814E-2,-5.8098923E-2,3.9418854E-2,-5.798742E-2,-4.202885E-2,5.0456267E-2,1.296069E-2,3.8317233E-2,-6.515707E-2,2.9781407E-2,5.3272214E-2,-7.7398024E-2,4.054227E-2,5.5612322E-2,-7.072748E-3,5.151285E-2,5.6723863E-2],"categories":[],"categories_nodes":[],"categories_segments":[],"categories_sizes":[],"default_left":[0,0,0,0,0,0,0,0,0,0,0,0,0,0,0,0,0,0,0,0,0,0,0,0,0,0,0,0,0,0,0,0,0,0,0,0,0,0,0,0,0,0,0,0,0],"id":27,"left_children":[1,3,5,7,9,11,13,15,17,-1,19,-1,21,23,25,-1,27,29,31,33,35,37,39,-1,-1,41,43,-1,-1,-1,-1,-1,-1,-1,-1,-1,-1,-1,-1,-1,-1,-1,-1,-1,-1],"loss_changes":[5.5348374E3,1.0935527E3,1.511211E2,1.2308887E2,1.5556532E2,2.3069809E2,2.5027832E1,1.5407994E2,1.149895E2,0E0,1.3225812E2,0E0,6.0570038E1,8.283653E0,9.8203125E0,0E0,2.4888115E1,2.4876323E2,1.2988281E1,3.1283844E1,6.410388E1,2.8712646E1,1.9569531E2,0E0,0E0,2.3353584E1,3.8586426E0,0E0,0E0,0E0,0E0,0E0,0E0,0E0,0E0,0E0,0E0,0E0,0E0,0E0,0E0,0E0,0E0,0E0,0E0],"parents":[2147483647,0,0,1,1,2,2,3,3,4,4,5,5,6,6,7,7,8,8,10,10,12,12,13,13,14,14,16,16,17,17,18,18,19,19,20,20,21,21,22,22,25,25,26,26],"right_children":[2,4,6,8,10,12,14,16,18,-1,20,-1,22,24,26,-1,28,30,32,34,36,38,40,-1,-1,42,44,-1,-1,-1,-1,-1,-1,-1,-1,-1,-1,-1,-1,-1,-1,-1,-1,-1,-1],"split_conditions":[8.0015E1,1.7670337E0,1.817825E2,-4.89181E3,1.80477E3,-3.1522E2,-1.7073E3,7.75501E-1,5.768E1,-7.4339345E-2,4.21E3,-6.288749E-2,3.37396E3,1.54208E3,4.51881E4,-5.9101194E-2,4.214951E4,4.56125E1,3.3526E3,2.29E2,-6.26783E3,5.64442E4,1.6978043E4,4.2151786E-2,1.0703787E-3,3.95331E4,3.800975E2,2.4356795E-2,8.98814E-2,-5.8098923E-2,3.9418854E-2,-5.798742E-2,-4.202885E-2,5.0456267E-2,1.296069E-2,3.8317233E-2,-6.515707E-2,2.9781407E-2,5.3272214E-2,-7.7398024E-2,4.054227E-2,5.5612322E-2,-7.072748E-3,5.151285E-2,5.6723863E-2],"split_indices":[22,17,22,21,8,8,8,7,5,0,9,0,2,3,24,0,6,22,8,30,21,24,11,0,0,24,22,0,0,0,0,0,0,0,0,0,0,0,0,0,0,0,0,0,0],"split_type":[0,0,0,0,0,0,0,0,0,0,0,0,0,0,0,0,0,0,0,0,0,0,0,0,0,0,0,0,0,0,0,0,0,0,0,0,0,0,0,0,0,0,0,0,0],"sum_hessian":[7.0077427E3,3.629877E3,3.377866E3,3.1142153E3,5.156616E2,8.36625E2,2.541241E3,1.1768016E2,2.9965352E3,3.4662216E1,4.809994E2,6.154307E1,7.750819E2,4.9389076E1,2.491852E3,5.8247707E1,5.943245E1,2.8391562E2,2.7126196E3,4.1497928E2,6.602011E1,5.8281793E2,1.92264E2,2.0281883E1,2.9107193E1,6.5458855E1,2.426393E3,3.3123528E1,2.6308924E1,1.8345747E2,1.00458145E2,2.565189E3,1.474306E2,3.478026E2,6.7176674E1,2.1503391E1,4.4516716E1,2.0606691E2,3.76751E2,4.514391E1,1.471201E2,4.3450375E1,2.2008478E1,6.324109E2,1.7939822E3],"tree_param":{"num_deleted":"0","num_feature":"33","num_nodes":"45","size_leaf_vector":"1"}},{"base_weights":[3.8662907E-2,-8.71141E-1,9.065872E-1,5.5214447E-1,-1.072865E0,4.66114E-1,1.0747367E0,6.7424E-1,-5.8602452E-2,-3.9208353E-1,-1.1203929E0,-9.4370663E-1,6.946801E-1,3.5178778E-1,1.0891066E0,7.688935E-1,-1.5249632E-2,-5.7727028E-2,9.851017E-1,-3.372235E-1,-5.7406187E-2,-1.2837507E0,4.5878E-2,8.211178E-1,-2.53672E-1,4.041168E-2,8.1998855E-4,6.831707E-1,1.0998039E0,4.4866618E-2,2.6435456E-3,8.1841335E-2,2.73375E-2,-5.8131814E-2,4.4575084E-2,-5.841918E-2,-7.759219E-2,5.171855E-2,2.3300624E-2,-8.070756E-2,4.0181052E-2,6.3156806E-2,-1.4654355E-2,5.1085323E-2,5.6425937E-2],"categories":[],"categories_nodes":[],"categories_segments":[],"categories_sizes":[],"default_left":[0,0,0,0,0,0,0,0,0,0,0,0,0,0,0,0,0,0,0,0,0,0,0,0,0,0,0,0,0,0,0,0,0,0,0,0,0,0,0,0,0,0,0,0,0],"id":28,"left_children":[1,3,5,7,9,11,13,15,-1,17,19,21,23,25,27,29,-1,-1,31,33,-1,35,-1,37,39,-1,-1,41,43,-1,-1,-1,-1,-1,-1,-1,-1,-1,-1,-1,-1,-1,-1,-1,-1],"loss_changes":[5.3009014E3,9.4159106E2,2.5395654E2,8.657912E1,9.245386E1,3.0708478E2,2.5439209E1,3.5567276E1,0E0,1.9948157E2,5.78833E1,8.541034E1,9.839523E1,7.6288886E0,9.829834E0,3.1946E1,0E0,0E0,1.8488945E1,9.553029E1,0E0,1.6801453E0,0E0,5.4250793E1,1.4095926E2,0E0,0E0,3.728876E1,4.1674805E0,0E0,0E0,0E0,0E0,0E0,0E0,0E0,0E0,0E0,0E0,0E0,0E0,0E0,0E0,0E0,0E0],"parents":[2147483647,0,0,1,1,2,2,3,3,4,4,5,5,6,6,7,7,9,9,10,10,11,11,12,12,13,13,14,14,15,15,18,18,19,19,21,21,23,23,24,24,27,27,28,28],"right_children":[2,4,6,8,10,12,14,16,-1,18,20,22,24,26,28,30,-1,-1,32,34,-1,36,-1,38,40,-1,-1,42,44,-1,-1,-1,-1,-1,-1,-1,-1,-1,-1,-1,-1,-1,-1,-1,-1],"split_conditions":[7.13225E1,1.4968147E0,1.817825E2,5.3027E3,3.414E1,1.0447E2,-1.7073E3,3.7716E2,-5.8602452E-2,4.56125E1,-4.89181E3,9.166875E2,6.2873E-1,1E-1,4.41701E4,2.29E2,-1.5249632E-2,-5.7727028E-2,4.63175E1,1.4103E3,-5.7406187E-2,9.2182696E-1,4.5878E-2,5.691E1,1.4149614E4,4.041168E-2,8.1998855E-4,1.6432412E0,3.800975E2,4.4866618E-2,2.6435456E-3,8.1841335E-2,2.73375E-2,-5.8131814E-2,4.4575084E-2,-5.841918E-2,-7.759219E-2,5.171855E-2,2.3300624E-2,-8.070756E-2,4.0181052E-2,6.3156806E-2,-1.4654355E-2,5.1085323E-2,5.6425937E-2],"split_indices":[22,16,22,9,5,8,8,21,0,22,21,23,13,2,24,30,0,0,22,20,0,15,0,23,11,0,0,16,22,0,0,0,0,0,0,0,0,0,0,0,0,0,0,0,0],"split_type":[0,0,0,0,0,0,0,0,0,0,0,0,0,0,0,0,0,0,0,0,0,0,0,0,0,0,0,0,0,0,0,0,0,0,0,0,0,0,0,0,0,0,0,0,0],"sum_hessian":[6.7110527E3,3.2764753E3,3.4345776E3,4.0651648E2,2.8699587E3,9.49943E2,2.4846345E3,3.8020215E2,2.631435E1,1.8789125E2,2.6820674E3,1.3208702E2,8.1785596E2,4.8920437E1,2.435714E3,3.468866E2,3.3315548E1,1.2104065E2,6.685059E1,9.217027E1,2.5898972E3,1.11945435E2,2.014158E1,7.217622E2,9.609375E1,2.0123516E1,2.8796919E1,6.420457E1,2.3715095E3,2.9391196E2,5.2974636E1,2.5783136E1,4.106746E1,5.5165733E1,3.700454E1,8.201186E1,2.9933575E1,4.4975546E2,2.7200677E2,4.179153E1,5.4302223E1,4.009279E1,2.4111778E1,6.4737604E2,1.7241335E3],"tree_param":{"num_deleted":"0","num_feature":"33","num_nodes":"45","size_leaf_vector":"1"}},{"base_weights":[7.090562E-2,-8.435902E-1,9.060195E-1,4.313443E-1,-1.0611959E0,4.932317E-1,1.0665739E0,6.696679E-1,-5.903668E-2,-3.5269386E-1,-1.1100458E0,-6.0157835E-2,6.614951E-1,7.984571E-3,1.0776982E0,8.6130476E-1,-2.8800446E-1,-5.7041954E-2,9.512989E-1,-3.237183E-1,-5.6926895E-2,1.0652633E0,4.255654E-1,4.7541177E-1,1.088731E0,4.7995217E-2,-1.1505126E-2,-8.951139E-2,5.1738292E-2,8.00308E-2,2.617146E-2,-5.7724446E-2,5.4211684E-2,5.6020226E-2,3.8449567E-2,2.8497452E-2,-9.279709E-2,4.121169E-2,8.910748E-3,5.0358035E-2,5.5922598E-2],"categories":[],"categories_nodes":[],"categories_segments":[],"categories_sizes":[],"default_left":[0,0,0,0,0,0,0,0,0,0,0,0,0,0,0,0,0,0,0,0,0,0,0,0,0,0,0,0,0,0,0,0,0,0,0,0,0,0,0,0,0],"id":29,"left_children":[1,3,5,7,9,11,13,15,-1,17,19,-1,21,-1,23,25,27,-1,29,31,-1,33,35,37,39,-1,-1,-1,-1,-1,-1,-1,-1,-1,-1,-1,-1,-1,-1,-1,-1],"loss_changes":[5.099496E3,8.846931E2,2.3077856E2,1.795922E2,9.384595E1,2.8029742E2,2.516919E1,7.477562E1,0E0,1.8308687E2,5.668872E1,0E0,8.446979E1,0E0,1.5970215E1,3.6661346E1,1.378911E2,0E0,1.7848057E1,1.0704933E2,0E0,4.498932E0,1.869631E2,4.6643896E0,4.7788086E0,0E0,0E0,0E0,0E0,0E0,0E0,0E0,0E0,0E0,0E0,0E0,0E0,0E0,0E0,0E0,0E0],"parents":[2147483647,0,0,1,1,2,2,3,3,4,4,5,5,6,6,7,7,9,9,10,10,12,12,14,14,15,15,16,16,18,18,19,19,21,21,22,22,23,23,24,24],"right_children":[2,4,6,8,10,12,14,16,-1,18,20,-1,22,-1,24,26,28,-1,30,32,-1,34,36,38,40,-1,-1,-1,-1,-1,-1,-1,-1,-1,-1,-1,-1,-1,-1,-1,-1],"split_conditions":[7.13225E1,1.8301694E0,1.817825E2,4.8709E3,3.414E1,-3.1522E2,4.34214E4,2.29E2,-5.903668E-2,4.56125E1,-4.89181E3,-6.0157835E-2,1.1279408E0,7.984571E-3,-1.7073E3,2.0017E2,5.904931E-1,-5.7041954E-2,4.63175E1,1E0,-5.6926895E-2,8.692833E-1,8.5511E3,-2.891671E3,3.800975E2,4.7995217E-2,-1.1505126E-2,-8.951139E-2,5.1738292E-2,8.00308E-2,2.617146E-2,-5.7724446E-2,5.4211684E-2,5.6020226E-2,3.8449567E-2,2.8497452E-2,-9.279709E-2,4.121169E-2,8.910748E-3,5.0358035E-2,5.5922598E-2],"split_indices":[22,16,22,9,5,8,0,30,0,22,21,0,16,0,8,21,10,0,22,27,0,16,18,8,22,0,0,0,0,0,0,0,0,0,0,0,0,0,0,0,0],"split_type":[0,0,0,0,0,0,0,0,0,0,0,0,0,0,0,0,0,0,0,0,0,0,0,0,0,0,0,0,0,0,0,0,0,0,0,0,0,0,0,0,0],"sum_hessian":[6.675283E3,3.186204E3,3.4890793E3,4.64391E2,2.721813E3,9.781953E2,2.510884E3,4.0508875E2,5.930223E1,1.7608989E2,2.5457231E3,8.771587E1,8.904795E2,3.061282E1,2.4802712E3,3.3762775E2,6.746101E1,1.0983172E2,6.625818E1,8.944964E1,2.4562734E3,3.2712503E2,5.6335443E2,4.5410107E1,2.434861E3,3.0976367E2,2.7864075E1,3.142236E1,3.603865E1,2.522972E1,4.102846E1,5.6368866E1,3.308077E1,2.7344974E2,5.3675312E1,5.3053033E2,3.2824062E1,2.0074806E1,2.5335299E1,6.5955884E2,1.7753022E3],"tree_param":{"num_deleted":"0","num_feature":"33","num_nodes":"41","size_leaf_vector":"1"}},{"base_weights":[2.4853628E-2,-8.4129584E-1,8.653381E-1,3.8278246E-1,-1.0517671E0,3.8442445E-1,1.0222944E0,-1.4128886E0,5.941974E-1,-3.5453576E-1,-1.1014872E0,-4.8856315E-1,7.98566E-1,2.8515673E-1,1.0431486E0,-8.567977E-2,-5.629886E-2,6.97374E-1,-5.652796E-2,-5.6621373E-2,8.724877E-1,-2.9343536E-1,-5.6538995E-2,-1.1795295E0,5.388916E-1,9.531833E-1,-6.810981E-1,-3.3121314E-2,5.54264E-2,8.221936E-1,1.0839128E0,-2.298039E-2,3.983109E-2,7.6465E-2,2.2855114E-2,5.3879905E-2,-5.7025224E-2,7.4148676E-3,-6.937462E-2,-1.2411669E-2,5.3183723E-2,5.243027E-2,1.3361439E-2,2.920328E-2,-7.734609E-2,5.1922884E-2,-1.4464554E-3,5.6105375E-2,5.1693905E-2],"categories":[],"categories_nodes":[],"categories_segments":[],"categories_sizes":[],"default_left":[0,0,0,0,0,0,0,0,0,0,0,0,0,0,0,0,0,0,0,0,0,0,0,0,0,0,0,0,0,0,0,0,0,0,0,0,0,0,0,0,0,0,0,0,0,0,0,0,0],"id":30,"left_children":[1,3,5,7,9,11,13,15,17,19,21,23,25,27,29,-1,-1,31,-1,-1,33,35,-1,37,39,41,43,-1,-1,45,47,-1,-1,-1,-1,-1,-1,-1,-1,-1,-1,-1,-1,-1,-1,-1,-1,-1,-1],"loss_changes":[4.4948105E3,7.8380005E2,2.3613647E2,1.7048145E2,8.95647E1,2.7973746E2,3.6010498E1,2.1570587E0,7.2058044E1,1.6726106E2,5.6989502E1,1.775717E2,1.2062927E2,5.2507736E1,1.9794434E1,0E0,0E0,4.3829224E1,0E0,0E0,1.7895256E1,1.0118489E2,0E0,4.1441162E1,4.1942528E1,3.0826172E1,5.589187E1,0E0,0E0,6.663345E1,2.5390625E0,0E0,0E0,0E0,0E0,0E0,0E0,0E0,0E0,0E0,0E0,0E0,0E0,0E0,0E0,0E0,0E0,0E0,0E0],"parents":[2147483647,0,0,1,1,2,2,3,3,4,4,5,5,6,6,7,7,8,8,9,9,10,10,11,11,12,12,13,13,14,14,17,17,20,20,21,21,23,23,24,24,25,25,26,26,29,29,30,30],"right_children":[2,4,6,8,10,12,14,16,18,20,22,24,26,28,30,-1,-1,32,-1,-1,34,36,-1,38,40,42,44,-1,-1,46,48,-1,-1,-1,-1,-1,-1,-1,-1,-1,-1,-1,-1,-1,-1,-1,-1,-1,-1],"split_conditions":[7.13225E1,1.8301694E0,1.425525E2,2.60875E1,3.414E1,1.31681E3,-1.51812E3,5.3027E3,5.3027E3,4.56125E1,-4.89181E3,1.095075E2,6.26799E3,2.8969E3,2.398475E2,-8.567977E-2,-5.629886E-2,9.7991E2,-5.652796E-2,-5.6621373E-2,4.63175E1,-7.0710677E-1,-5.6538995E-2,6.2164452E-2,1.9136E2,6.443988E-1,7.956E1,-3.3121314E-2,5.54264E-2,2.647684E0,6.294675E0,-2.298039E-2,3.983109E-2,7.6465E-2,2.2855114E-2,5.3879905E-2,-5.7025224E-2,7.4148676E-3,-6.937462E-2,-1.2411669E-2,5.3183723E-2,5.243027E-2,1.3361439E-2,2.920328E-2,-7.734609E-2,5.1922884E-2,-1.4464554E-3,5.6105375E-2,5.1693905E-2],"split_indices":[22,16,22,22,5,8,8,9,9,22,21,23,2,20,22,0,0,3,0,0,22,25,0,12,8,13,5,0,0,16,16,0,0,0,0,0,0,0,0,0,0,0,0,0,0,0,0,0,0],"split_type":[0,0,0,0,0,0,0,0,0,0,0,0,0,0,0,0,0,0,0,0,0,0,0,0,0,0,0,0,0,0,0,0,0,0,0,0,0,0,0,0,0,0,0,0,0,0,0,0,0],"sum_hessian":[6.172316E3,3.0397468E3,3.1325693E3,4.4585913E2,2.5938877E3,7.716585E2,2.3609106E3,4.636563E1,3.994935E2,1.7320067E2,2.420687E3,2.4822795E2,5.2343054E2,6.5358086E1,2.2955527E3,2.021066E1,2.615497E1,3.7750638E2,2.1987127E1,1.0604732E2,6.715335E1,8.506796E1,2.3356191E3,1.4832855E2,9.98994E1,4.742316E2,4.919895E1,3.047787E1,3.4880215E1,3.608431E2,1.9347095E3,2.9537844E1,3.4796854E2,2.49773E1,4.2176044E1,3.2382595E1,5.2685368E1,2.0124178E1,1.2820438E2,4.017206E1,5.972734E1,4.158541E2,5.837749E1,2.0121834E1,2.9077118E1,2.8755695E2,7.328618E1,1.0850208E3,8.496888E2],"tree_param":{"num_deleted":"0","num_feature":"33","num_nodes":"49","size_leaf_vector":"1"}},{"base_weights":[5.200481E-2,-7.644692E-1,7.3763275E-1,-9.5793056E-1,9.3731153E-1,3.1373402E-1,9.9872506E-1,-4.5335525E-1,-1.0735443E0,5.526972E-2,-2.1179069E-2,5.204123E-2,1.0138358E0,1.0130714E0,-2.021027E-2,-5.7364356E-2,-1.7595967E-2,-1.1138291E0,1.0254536E-1,4.840644E-1,-5.0264126E-1,2.1362236E-2,1.071368E0,-3.3643114E-4,1.0238175E0,2.5906626E-2,-5.0198626E-2,-5.6312174E-2,-1.8223032E-2,-5.6228466E-2,4.126394E-2,-4.9411207E-3,4.5687728E-2,-6.4105384E-2,9.2068635E-4,2.8857792E-2,5.5660244E-2,4.271615E-2,5.2730497E-2],"categories":[],"categories_nodes":[],"categories_segments":[],"categories_sizes":[],"default_left":[0,0,0,0,0,0,0,0,0,0,0,0,0,0,0,0,0,0,0,0,0,0,0,0,0,0,0,0,0,0,0,0,0,0,0,0,0,0,0],"id":31,"left_children":[1,3,5,7,9,11,13,15,17,-1,-1,19,21,23,-1,-1,25,27,29,31,33,-1,35,-1,37,-1,-1,-1,-1,-1,-1,-1,-1,-1,-1,-1,-1,-1,-1],"loss_changes":[3.443148E3,9.2520557E2,3.6970142E2,1.4660156E2,6.613728E1,2.3368105E2,4.204077E1,1.4263516E2,9.727124E1,0E0,0E0,2.2303122E2,1.1254944E1,2.2448486E1,0E0,0E0,1.5418996E2,1.80354E1,6.1972336E1,1.3111697E2,1.655486E2,0E0,5.8788757E0,0E0,9.675293E0,0E0,0E0,0E0,0E0,0E0,0E0,0E0,0E0,0E0,0E0,0E0,0E0,0E0,0E0],"parents":[2147483647,0,0,1,1,2,2,3,3,4,4,5,5,6,6,7,7,8,8,11,11,12,12,13,13,16,16,17,17,18,18,19,19,20,20,22,22,24,24],"right_children":[2,4,6,8,10,12,14,16,18,-1,-1,20,22,24,-1,-1,26,28,30,32,34,-1,36,-1,38,-1,-1,-1,-1,-1,-1,-1,-1,-1,-1,-1,-1,-1,-1],"split_conditions":[9.2381024E-1,2.398475E2,2.3108242E4,5.231466E-1,5.7E1,1.012775E2,2.3560598E1,3.1465E1,6.03528E3,5.526972E-2,-2.1179069E-2,1.9061933E0,-5E-1,-1.51812E3,-2.021027E-2,-5.7364356E-2,1.9E2,1.095075E2,4.560767E4,-1.5048E3,3.7505E1,2.1362236E-2,5.61409E4,-3.3643114E-4,5.413915E-1,2.5906626E-2,-5.0198626E-2,-5.6312174E-2,-1.8223032E-2,-5.6228466E-2,4.126394E-2,-4.9411207E-3,4.5687728E-2,-6.4105384E-2,9.2068635E-4,2.8857792E-2,5.5660244E-2,4.271615E-2,5.2730497E-2],"split_indices":[15,23,11,13,30,23,16,23,4,0,0,16,27,8,0,0,30,23,6,19,23,0,24,0,10,0,0,0,0,0,0,0,0,0,0,0,0,0,0],"split_type":[0,0,0,0,0,0,0,0,0,0,0,0,0,0,0,0,0,0,0,0,0,0,0,0,0,0,0,0,0,0,0,0,0,0,0,0,0,0,0],"sum_hessian":[6.1486963E3,2.8064932E3,3.342203E3,2.5204062E3,2.8608698E2,1.2747588E3,2.067444E3,4.707637E2,2.0496426E3,2.5480408E2,3.12829E1,9.286942E2,3.4606458E2,2.0467916E3,2.0652605E1,1.809593E2,2.898044E2,1.981812E3,6.783058E1,5.221426E2,4.0655164E2,3.166261E1,3.1440198E2,2.1347002E1,2.0254446E3,1.8811089E2,1.0169353E2,1.9490209E3,3.2791107E1,2.4936094E1,4.289449E1,2.2189957E2,3.00243E2,1.6230006E2,2.4425157E2,2.5692768E1,2.887092E2,3.1581403E2,1.7096305E3],"tree_param":{"num_deleted":"0","num_feature":"33","num_nodes":"39","size_leaf_vector":"1"}},{"base_weights":[3.5738196E-2,-8.513767E-1,8.551285E-1,7.7399725E-1,-1.0053477E0,4.3762523E-1,1.0323133E0,2.3346786E-1,9.8453724E-1,-5.544017E-1,-1.122562E0,-5.035851E-1,7.3921776E-1,3.1408736E-1,1.0477635E0,-5.1017296E-2,5.202464E-2,5.3856976E-2,1.3586305E-2,1.55092E-1,-9.330146E-1,-7.176451E-2,-5.5800267E-2,1.0058092E0,-1.1328511E0,8.849601E-1,1.2150572E-1,3.0135805E-2,3.400578E-3,9.4416374E-1,1.0878003E0,-6.501881E-2,5.1075697E-2,2.6443128E-2,-5.6734946E-2,6.400073E-2,2.4187133E-2,-7.0017025E-2,2.2053417E-2,4.63122E-2,-6.259949E-3,-7.335551E-2,3.8423765E-2,3.7633523E-4,4.9956698E-2,3.4728773E-2,5.472606E-2],"categories":[],"categories_nodes":[],"categories_segments":[],"categories_sizes":[],"default_left":[0,0,0,0,0,0,0,0,0,0,0,0,0,0,0,0,0,0,0,0,0,0,0,0,0,0,0,0,0,0,0,0,0,0,0,0,0,0,0,0,0,0,0,0,0,0,0],"id":32,"left_children":[1,3,5,7,9,11,13,15,17,19,21,23,25,27,29,-1,-1,-1,-1,31,33,-1,-1,35,37,39,41,-1,-1,43,45,-1,-1,-1,-1,-1,-1,-1,-1,-1,-1,-1,-1,-1,-1,-1,-1],"loss_changes":[4.212573E3,6.971726E2,2.224082E2,2.7237305E1,1.337583E2,2.5565968E2,2.3132568E1,7.084765E1,1.1152344E1,1.4156682E2,2.5334473E0,2.0899394E2,6.1245605E1,3.222742E0,7.5561523E0,0E0,0E0,0E0,0E0,2.33419E2,1.0185449E2,0E0,0E0,8.674202E0,6.583948E1,2.3104584E1,1.3603079E2,0E0,0E0,3.00802E1,3.16687E0,0E0,0E0,0E0,0E0,0E0,0E0,0E0,0E0,0E0,0E0,0E0,0E0,0E0,0E0,0E0,0E0],"parents":[2147483647,0,0,1,1,2,2,3,3,4,4,5,5,6,6,7,7,8,8,9,9,10,10,11,11,12,12,13,13,14,14,19,19,20,20,23,23,24,24,25,25,26,26,29,29,30,30],"right_children":[2,4,6,8,10,12,14,16,18,20,22,24,26,28,30,-1,-1,-1,-1,32,34,-1,-1,36,38,40,42,-1,-1,44,46,-1,-1,-1,-1,-1,-1,-1,-1,-1,-1,-1,-1,-1,-1,-1,-1],"split_conditions":[7.13225E1,9.7044873E-1,1.817825E2,-4.9334E3,5.388957E-1,8.27309E2,-1.7073E3,5.79025E1,1.6181532E-1,3.1773329E0,1.4968147E0,5.7E1,5.77473E3,-2.76282E3,3.800975E2,-5.1017296E-2,5.202464E-2,5.3856976E-2,1.3586305E-2,-7.904E2,2.2525644E-1,-7.176451E-2,-5.5800267E-2,1.3788168E-1,6.03528E3,-1.054E2,9.8924774E-1,3.0135805E-2,3.400578E-3,-4.3183E2,4.4878E4,-6.501881E-2,5.1075697E-2,2.6443128E-2,-5.6734946E-2,6.400073E-2,2.4187133E-2,-7.0017025E-2,2.2053417E-2,4.63122E-2,-6.259949E-3,-7.335551E-2,3.8423765E-2,3.7633523E-4,4.9956698E-2,3.4728773E-2,5.472606E-2],"split_indices":[22,16,22,20,13,8,8,22,12,16,16,30,2,8,22,0,0,0,0,19,14,0,0,7,4,19,15,0,0,8,0,0,0,0,0,0,0,0,0,0,0,0,0,0,0,0,0],"split_type":[0,0,0,0,0,0,0,0,0,0,0,0,0,0,0,0,0,0,0,0,0,0,0,0,0,0,0,0,0,0,0,0,0,0,0,0,0,0,0,0,0,0,0,0,0,0,0],"sum_hessian":[5.7933096E3,2.781679E3,3.0116306E3,2.403569E2,2.541322E3,8.983364E2,2.1132942E3,6.7968094E1,1.7238881E2,5.254698E2,2.0158523E3,2.1783789E2,6.8049854E2,4.4952183E1,2.068342E3,2.651281E1,4.145528E1,1.521161E2,2.0272713E1,1.8304562E2,3.4242413E2,3.6922546E1,1.9789298E3,6.3919193E1,1.539187E2,5.5024225E2,1.3025626E2,2.0020409E1,2.4931774E1,5.8337415E2,1.4849678E3,6.8117256E1,1.1492837E2,4.1317627E1,3.011065E2,4.0956005E1,2.2963186E1,1.316542E2,2.2264494E1,5.2871735E2,2.1524927E1,3.732879E1,9.2927475E1,3.2402645E1,5.509715E2,2.6707815E1,1.45826E3],"tree_param":{"num_deleted":"0","num_feature":"33","num_nodes":"47","size_leaf_vector":"1"}},{"base_weights":[5.2801967E-2,-8.185155E-1,8.421802E-1,-1.0817105E0,1.6409166E-1,3.8501832E-1,1.0262774E0,-2.778071E-1,-5.551901E-2,3.459259E-1,-5.6570437E-2,-6.443359E-1,6.9087774E-1,-1.0838153E-2,1.0439252E0,-5.568729E-2,6.0760867E-2,5.7579654E-1,-8.68277E-1,7.2246516E-1,-1.3958162E0,7.5643384E-1,-6.434422E-2,4.8445213E-1,1.0557622E0,3.8221322E-2,-1.6144663E-2,2.9373592E-2,-6.871506E-2,6.471047E-2,-1.6975746E-3,-1.0123598E-1,-6.250438E-2,4.5049246E-2,2.598448E-3,-1.6182313E-4,5.2101273E-2,4.8046675E-2,5.456925E-2],"categories":[],"categories_nodes":[],"categories_segments":[],"categories_sizes":[],"default_left":[0,0,0,0,0,0,0,0,0,0,0,0,0,0,0,0,0,0,0,0,0,0,0,0,0,0,0,0,0,0,0,0,0,0,0,0,0,0,0],"id":33,"left_children":[1,3,5,7,9,11,13,15,-1,17,-1,19,21,-1,23,-1,-1,25,27,29,31,33,-1,35,37,-1,-1,-1,-1,-1,-1,-1,-1,-1,-1,-1,-1,-1,-1],"loss_changes":[3.9192915E3,7.0067017E2,2.5122437E2,4.893286E1,1.3539525E2,2.7117548E2,4.6969727E1,9.483992E1,0E0,1.4098428E2,0E0,2.0386244E2,8.698715E1,0E0,1.3402832E1,0E0,0E0,7.209105E1,6.012185E1,3.0629944E1,9.179321E0,6.540549E1,0E0,1.2343549E1,5.89917E0,0E0,0E0,0E0,0E0,0E0,0E0,0E0,0E0,0E0,0E0,0E0,0E0,0E0,0E0],"parents":[2147483647,0,0,1,1,2,2,3,3,4,4,5,5,6,6,7,7,9,9,11,11,12,12,14,14,17,17,18,18,19,19,20,20,21,21,23,23,24,24],"right_children":[2,4,6,8,10,12,14,16,-1,18,-1,20,22,-1,24,-1,-1,26,28,30,32,34,-1,36,38,-1,-1,-1,-1,-1,-1,-1,-1,-1,-1,-1,-1,-1,-1],"split_conditions":[7.13225E1,9.4701403E-1,1.817825E2,1.45E1,5.3027E3,8.27309E2,-1.7073E3,5.91988E4,-5.551901E-2,3.7716E2,-5.6570437E-2,-1.57348E3,7.3473E3,-1.0838153E-2,4.33322E4,-5.568729E-2,6.0760867E-2,2.29E2,4.546E2,2.1280043E-1,2.7512E3,5.1977E3,-6.434422E-2,2.9022467E-1,3.800975E2,3.8221322E-2,-1.6144663E-2,2.9373592E-2,-6.871506E-2,6.471047E-2,-1.6975746E-3,-1.0123598E-1,-6.250438E-2,4.5049246E-2,2.598448E-3,-1.6182313E-4,5.2101273E-2,4.8046675E-2,5.456925E-2],"split_indices":[22,15,22,5,9,8,8,0,0,21,0,21,9,0,0,0,0,30,4,14,9,2,0,14,22,0,0,0,0,0,0,0,0,0,0,0,0,0,0],"split_type":[0,0,0,0,0,0,0,0,0,0,0,0,0,0,0,0,0,0,0,0,0,0,0,0,0,0,0,0,0,0,0,0,0,0,0,0,0,0,0],"sum_hessian":[5.6963066E3,2.7076072E3,2.9886997E3,2.1355037E3,5.721035E2,8.589046E2,2.1297952E3,7.390442E1,2.0615994E3,5.0233026E2,6.977324E1,1.9649707E2,6.6240753E2,2.9656109E1,2.100139E3,4.754063E1,2.6363787E1,4.2281036E2,7.95199E1,6.9722885E1,1.2677418E2,6.417531E2,2.0654411E1,4.4381287E1,2.0557578E3,3.4958405E2,7.322631E1,2.047002E1,5.9049877E1,